{"learner":{"attributes":{"scikit_learn":"{\"_estimator_type\": \"classifier\"}"},"feature_names":[],"feature_types":[],"gradient_booster":{"model":{"gbtree_model_param":{"num_parallel_tree":"1","num_trees":"100"},"iteration_indptr":[0,1,2,3,4,5,6,7,8,9,10,11,12,13,14,15,16,17,18,19,20,21,22,23,24,25,26,27,28,29,30,31,32,33,34,35,36,37,38,39,40,41,42,43,44,45,46,47,48,49,50,51,52,53,54,55,56,57,58,59,60,61,62,63,64,65,66,67,68,69,70,71,72,73,74,75,76,77,78,79,80,81,82,83,84,85,86,87,88,89,90,91,92,93,94,95,96,97,98,99,100],"tree_info":[0,0,0,0,0,0,0,0,0,0,0,0,0,0,0,0,0,0,0,0,0,0,0,0,0,0,0,0,0,0,0,0,0,0,0,0,0,0,0,0,0,0,0,0,0,0,0,0,0,0,0,0,0,0,0,0,0,0,0,0,0,0,0,0,0,0,0,0,0,0,0,0,0,0,0,0,0,0,0,0,0,0,0,0,0,0,0,0,0,0,0,0,0,0,0,0,0,0,0,0],"trees":[{"base_weights":[-8.159831E-2,5.2383614E-1,-1.0624314E-1,1.0575045E0,3.8836348E-1,-1.463292E-1,2.3274824E-1,1.4965386E0,8.017495E-1,-8.907923E-1,4.032421E-1,-3.3761117E-1,-1.09689474E-1,1.558205E-1,3.5556126E-1,1.7277216E0,1.2102926E0,-2.5107777E-1,8.600225E-1,6.039008E-3,-3.3927038E-1,5.1579946E-1,2.7403125E-1,-4.428393E-1,-2.6263273E-1,3.1251047E-2,-1.4645782E-1,1.8711977E-1,-1.9215152E-1,1.1499228E0,3.4595335E-1,1.2660086E0,2.1189706E0,-2.274402E-1,1.334968E0,4.025983E-1,-7.2617084E-1,9.847356E-1,3.4590945E-1,6.8056583E-1,3.4914792E-1,2.9997772E-1,-7.4439937E-1,-6.013496E-1,-3.4047174E-1,-3.3375213E-1,-1.3630487E-1,1.4203241E-1,1.0244036E-3,-1.7759511E-1,-4.849761E-2,1.4746445E-1,6.0726875E-1,-1.681058E-2,-6.833877E-1,5.4164875E-1,1.278952E-1,-1.09543696E-1,3.6858398E-1,6.422687E-1,1.4003626E-1,6.6787857E-1,1.8046415E-1,2.7806467E-1,6.17724E-1,-5.8936164E-2,2.4026601E-1,-2.5650382E-1,-5.8936164E-2,2.2509147E-1,4.2364073E-1,-5.8053944E-2,3.457629E-1,1.4633594E-1,2.5153834E-1,6.025232E-2,1.8535468E-1,5.5859048E-2,1.251559E-1,-7.101635E-2,-3.123905E-1,-9.0286404E-2,-1.9522642E-1,-1.2067787E-1,-5.876489E-2,1.8074584E-1,-1.0250936E-1,1.1111402E-2,-7.385177E-2,1.4609812E-1,3.3494662E-2,1.7924672E-2,-2.2516472E-2,-4.2365775E-2,-7.7084824E-2,1.4952962E-1,-1.8401759E-2,3.0813504E-2,1.35881E-1,-2.0519808E-1,2.0185497E-1,2.5688346E-2,-1.7975366E-1,-2.9691198E-1,-1.2181528E-1,-2.274402E-1,2.2042522E-1,-2.1981746E-1,2.5972785E-2,2.61055E-1,1.0149905E-1],"categories":[],"categories_nodes":[],"categories_segments":[],"categories_sizes":[],"default_left":[0,0,0,0,0,0,0,0,0,0,0,0,0,0,0,0,0,0,0,0,0,0,0,0,0,0,0,0,0,0,0,0,0,0,0,0,0,0,0,0,0,0,0,0,0,0,0,0,0,0,0,0,0,0,0,0,0,0,0,0,0,0,0,0,0,0,0,0,0,0,0,0,0,0,0,0,0,0,0,0,0,0,0,0,0,0,0,0,0,0,0,0,0,0,0,0,0,0,0,0,0,0,0,0,0,0,0,0,0,0,0],"id":0,"left_children":[1,3,5,7,9,11,13,15,17,19,21,23,25,27,29,31,33,35,37,-1,-1,39,41,43,45,47,49,51,53,55,57,59,61,-1,63,65,67,69,71,73,75,77,79,81,83,85,87,89,91,93,95,97,99,101,103,-1,105,107,109,-1,-1,-1,-1,-1,-1,-1,-1,-1,-1,-1,-1,-1,-1,-1,-1,-1,-1,-1,-1,-1,-1,-1,-1,-1,-1,-1,-1,-1,-1,-1,-1,-1,-1,-1,-1,-1,-1,-1,-1,-1,-1,-1,-1,-1,-1,-1,-1,-1,-1,-1,-1],"loss_changes":[2.7043784E2,5.084503E1,2.3665858E2,1.4851654E1,1.1150436E1,1.0910242E2,1.7345085E1,1.3148422E0,5.8900337E0,1.5168314E0,8.020142E0,1.9630981E1,6.773804E1,1.2388954E1,5.0099716E0,2.0382156E0,7.474926E0,2.039093E0,5.2927094E0,0E0,0E0,7.9664307E0,7.1833515E0,1.6669174E1,1.3107262E1,9.058164E0,3.16111E1,1.7256653E1,8.093174E0,5.1542063E0,7.271736E0,9.119514E0,7.22229E-1,0E0,5.5167885E0,8.756689E-1,7.867491E-2,5.970894E0,8.3570385E0,4.1320877E0,5.8770943E0,3.3571777E0,7.8313375E-1,5.84079E0,5.5866776E0,7.1685486E0,1.0083827E1,6.023341E0,9.504081E0,2.2668762E1,1.7600882E1,1.2976877E1,8.036705E0,4.24924E0,1.6986761E0,0E0,2.8245206E0,4.2157865E0,9.850922E0,0E0,0E0,0E0,0E0,0E0,0E0,0E0,0E0,0E0,0E0,0E0,0E0,0E0,0E0,0E0,0E0,0E0,0E0,0E0,0E0,0E0,0E0,0E0,0E0,0E0,0E0,0E0,0E0,0E0,0E0,0E0,0E0,0E0,0E0,0E0,0E0,0E0,0E0,0E0,0E0,0E0,0E0,0E0,0E0,0E0,0E0,0E0,0E0,0E0,0E0,0E0,0E0],"parents":[2147483647,0,0,1,1,2,2,3,3,4,4,5,5,6,6,7,7,8,8,9,9,10,10,11,11,12,12,13,13,14,14,15,15,16,16,17,17,18,18,21,21,22,22,23,23,24,24,25,25,26,26,27,27,28,28,29,29,30,30,31,31,32,32,34,34,35,35,36,36,37,37,38,38,39,39,40,40,41,41,42,42,43,43,44,44,45,45,46,46,47,47,48,48,49,49,50,50,51,51,52,52,53,53,54,54,56,56,57,57,58,58],"right_children":[2,4,6,8,10,12,14,16,18,20,22,24,26,28,30,32,34,36,38,-1,-1,40,42,44,46,48,50,52,54,56,58,60,62,-1,64,66,68,70,72,74,76,78,80,82,84,86,88,90,92,94,96,98,100,102,104,-1,106,108,110,-1,-1,-1,-1,-1,-1,-1,-1,-1,-1,-1,-1,-1,-1,-1,-1,-1,-1,-1,-1,-1,-1,-1,-1,-1,-1,-1,-1,-1,-1,-1,-1,-1,-1,-1,-1,-1,-1,-1,-1,-1,-1,-1,-1,-1,-1,-1,-1,-1,-1,-1,-1],"split_conditions":[7.5085306E-1,7.2728914E-1,8.091938E-1,1.0373656E-2,1.8116825E-5,4.3422922E-5,8.256338E-1,4.48013E-3,1.2664837E-2,7.438366E-1,1.430928E-2,1.601744E-5,7.723212E-1,1.10476516E-1,2.211947E-4,3.253242E-3,4.7549834E-3,7.1464455E-1,8.071052E-2,6.039008E-3,-3.3927038E-1,7.438366E-1,4.838422E-3,4.101976E-2,3.2052197E-2,7.592763E-1,7.950917E-1,4.73624E-2,3.0694678E-4,1.7909177E-2,1.2374214E-3,1.4003183E-3,2.1195231E-2,-2.274402E-1,8.176468E-3,1.0699825E-2,1.2052744E-2,3.2052197E-2,1.271757E-1,7.1805916E-3,7.213132E-3,4.7201484E-2,2.7943902E-2,7.7430165E-1,7.8881E-1,6.387453E-3,9.341413E-2,2.8952472E-3,1.9246439E-2,3.3309963E-2,1.3046105E-3,6.70258E-3,3.1223197E-5,8.206298E-1,4.602389E-4,5.4164875E-1,1.7413116E-4,8.297875E-1,3.3917092E-3,6.422687E-1,1.4003626E-1,6.6787857E-1,1.8046415E-1,2.7806467E-1,6.17724E-1,-5.8936164E-2,2.4026601E-1,-2.5650382E-1,-5.8936164E-2,2.2509147E-1,4.2364073E-1,-5.8053944E-2,3.457629E-1,1.4633594E-1,2.5153834E-1,6.025232E-2,1.8535468E-1,5.5859048E-2,1.251559E-1,-7.101635E-2,-3.123905E-1,-9.0286404E-2,-1.9522642E-1,-1.2067787E-1,-5.876489E-2,1.8074584E-1,-1.0250936E-1,1.1111402E-2,-7.385177E-2,1.4609812E-1,3.3494662E-2,1.7924672E-2,-2.2516472E-2,-4.2365775E-2,-7.7084824E-2,1.4952962E-1,-1.8401759E-2,3.0813504E-2,1.35881E-1,-2.0519808E-1,2.0185497E-1,2.5688346E-2,-1.7975366E-1,-2.9691198E-1,-1.2181528E-1,-2.274402E-1,2.2042522E-1,-2.1981746E-1,2.5972785E-2,2.61055E-1,1.0149905E-1],"split_indices":[5,5,5,0,1,1,5,0,2,5,4,1,5,2,0,3,0,5,3,0,0,5,1,4,4,5,5,4,1,1,4,2,1,0,4,0,3,4,0,0,4,2,4,5,5,3,3,0,0,3,3,1,1,5,1,0,4,5,3,0,0,0,0,0,0,0,0,0,0,0,0,0,0,0,0,0,0,0,0,0,0,0,0,0,0,0,0,0,0,0,0,0,0,0,0,0,0,0,0,0,0,0,0,0,0,0,0,0,0,0,0],"split_type":[0,0,0,0,0,0,0,0,0,0,0,0,0,0,0,0,0,0,0,0,0,0,0,0,0,0,0,0,0,0,0,0,0,0,0,0,0,0,0,0,0,0,0,0,0,0,0,0,0,0,0,0,0,0,0,0,0,0,0,0,0,0,0,0,0,0,0,0,0,0,0,0,0,0,0,0,0,0,0,0,0,0,0,0,0,0,0,0,0,0,0,0,0,0,0,0,0,0,0,0,0,0,0,0,0,0,0,0,0,0,0],"sum_hessian":[1.8120125E4,7.079556E2,1.7412168E4,1.4195303E2,5.6600256E2,1.5571404E4,1.840765E3,5.0467724E1,9.148531E1,5.830932E0,5.6017163E2,2.501872E3,1.3069532E4,1.1332115E3,7.0755347E2,2.513333E1,2.5334394E1,4.624532E0,8.686079E1,1.4074664E0,4.4234657E0,2.9777966E2,2.6239194E2,1.0389113E3,1.4629608E3,2.704145E3,1.0365387E4,1.0401177E3,9.309385E1,7.037332E0,7.005161E2,1.3471464E1,1.1661864E1,1.2063998E0,2.4127995E1,2.0106664E0,2.613866E0,6.916692E1,1.7693863E1,1.4818611E2,1.4959357E2,2.56561E2,5.830932E0,4.0575244E2,6.331588E2,9.3495984E2,5.28001E2,5.7887085E2,2.1252742E3,7.864721E3,2.5006658E3,9.516484E2,8.8469315E1,6.936799E1,2.3725863E1,3.820266E0,3.217066E0,3.2974926E1,6.675412E2,5.6298656E0,7.8415985E0,1.0455464E1,1.2063998E0,1.6889597E1,7.2383986E0,1.0053332E0,1.0053332E0,1.608533E0,1.0053332E0,4.6446392E1,2.272053E1,1.1058664E1,6.6351986E0,6.856372E1,7.962238E1,9.751731E1,5.2076256E1,1.3149757E2,1.25063446E2,2.8149328E0,3.0159993E0,5.8309322E1,3.4744315E2,4.423466E2,1.9081223E2,7.2383986E0,9.2772144E2,2.0508797E2,3.22913E2,4.5642124E1,5.332287E2,1.1995635E3,9.2571075E2,5.3946177E3,2.4701035E3,5.649972E1,2.444166E3,8.312094E2,1.2043891E2,3.820266E0,8.464905E1,5.971679E1,9.651198E0,1.0053331E1,1.3672531E1,1.2063998E0,2.0106664E0,7.2383986E0,2.5736528E1,3.639306E1,6.3114813E2],"tree_param":{"num_deleted":"0","num_feature":"6","num_nodes":"111","size_leaf_vector":"1"}},{"base_weights":[-5.894935E-2,2.9597574E-1,-7.9205595E-2,6.002321E-1,1.992003E-1,-1.088712E-1,1.5626661E-1,8.016165E-1,4.137913E-1,-3.2480702E-1,2.2445337E-1,-2.5252333E-1,-8.19937E-2,6.0077466E-2,2.0714326E-1,1.049804E0,6.654165E-1,1.5997676E0,3.461598E-1,-1.0355106E-1,-8.117534E-1,9.8615587E-1,2.1164839E-1,1.870771E-1,-2.6877365E-1,1.1535904E-2,-1.05158485E-1,2.555396E-1,-5.260341E-2,4.4603595E-1,1.5836047E-1,-1.0913939E-1,1.1035911E0,1.441955E-1,7.889477E-1,5.237234E-1,1.6551462E-1,-4.964945E-1,4.0045157E-1,7.030609E-1,-2.2600451E-1,3.4506585E-2,-1.024727E0,-3.3305523E-1,1.3247292E0,2.2254819E-1,-3.5012847E-1,2.566574E-1,-7.819399E-1,-5.311688E-1,-2.4820526E-1,-3.045106E-1,1.9802276E-2,-1.1518752E-1,1.0852222E-1,2.1931775E-1,1.7884588E0,2.1452691E-2,-2.4289915E-1,4.0603617E-1,1.9509269E0,1.9326642E-1,-5.5626564E-2,2.8641626E-1,4.691889E-1,3.133359E-1,-3.8272012E-2,2.3565862E-2,2.730957E-1,1.3703325E-2,-3.2738316E-1,4.5915566E-2,1.7415796E-1,2.941964E-1,3.2950725E-2,-1.2425442E-1,6.7239776E-2,-3.304014E-1,-7.093082E-2,6.59065E-2,-2.1866716E-1,1.1572446E-1,5.585334E-1,1.1501997E-1,5.4223265E-2,-3.1239665E-1,7.673467E-2,9.284218E-2,-2.3745483E-1,-3.1601495E-1,2.7509676E-2,8.545208E-2,-1.7829444E-1,-1.00117095E-1,-5.4805834E-2,-1.4129603E-1,-1.0483653E-3,7.286422E-2,2.9932659E-3,-4.080183E-2,-1.4845481E-2,2.8211573E-2,3.9294168E-1,4.5020297E-1,6.0187057E-2,2.3203132E-1,6.3603103E-1,-2.4375434E-1,1.112766E-2,-1.0348791E-1,2.0091224E-1,2.563211E-1,9.682754E-2,7.707304E-1,-7.29393E-2,3.854562E-2,1.2753466E-1,-4.805983E-2,6.796018E-2],"categories":[],"categories_nodes":[],"categories_segments":[],"categories_sizes":[],"default_left":[0,0,0,0,0,0,0,0,0,0,0,0,0,0,0,0,0,0,0,0,0,0,0,0,0,0,0,0,0,0,0,0,0,0,0,0,0,0,0,0,0,0,0,0,0,0,0,0,0,0,0,0,0,0,0,0,0,0,0,0,0,0,0,0,0,0,0,0,0,0,0,0,0,0,0,0,0,0,0,0,0,0,0,0,0,0,0,0,0,0,0,0,0,0,0,0,0,0,0,0,0,0,0,0,0,0,0,0,0,0,0,0,0,0,0,0,0,0,0],"id":1,"left_children":[1,3,5,7,9,11,13,15,17,19,21,23,25,27,29,31,33,35,37,39,41,43,45,47,49,51,53,55,57,59,61,-1,63,65,67,-1,-1,69,71,73,75,-1,77,79,81,83,85,87,89,91,93,95,97,99,101,103,105,107,109,111,113,115,117,-1,-1,-1,-1,-1,-1,-1,-1,-1,-1,-1,-1,-1,-1,-1,-1,-1,-1,-1,-1,-1,-1,-1,-1,-1,-1,-1,-1,-1,-1,-1,-1,-1,-1,-1,-1,-1,-1,-1,-1,-1,-1,-1,-1,-1,-1,-1,-1,-1,-1,-1,-1,-1,-1,-1,-1],"loss_changes":[1.28795E2,2.836055E1,1.1838465E2,8.413391E0,9.803377E0,5.8085968E1,9.267815E0,3.050331E0,9.312933E0,3.6024265E0,6.639412E0,1.6991547E1,2.7471634E1,1.4493386E1,1.437899E1,3.2577057E0,4.672653E0,9.918213E-3,5.5812893E0,2.5958939E0,2.1989675E0,5.5039034E0,4.313856E0,5.940544E0,1.2213272E1,6.5839357E0,2.1790382E1,1.2966028E1,5.893878E0,1.1831226E1,7.713175E0,0E0,1.004036E0,3.917295E0,5.0907135E0,0E0,0E0,2.4902916E0,4.8599834E0,4.678656E-1,1.9713985E0,0E0,2.6346588E-1,8.4146535E-1,3.9316673E0,4.497967E0,5.9433293E0,4.6837735E0,1.5076835E0,8.69149E0,1.1834381E1,3.2173996E0,5.37721E0,1.3271103E1,7.8124166E0,5.3560686E0,1.826458E-1,3.9653704E0,1.1141605E1,7.3988953E0,7.632454E0,1.326458E1,4.3263993E0,0E0,0E0,0E0,0E0,0E0,0E0,0E0,0E0,0E0,0E0,0E0,0E0,0E0,0E0,0E0,0E0,0E0,0E0,0E0,0E0,0E0,0E0,0E0,0E0,0E0,0E0,0E0,0E0,0E0,0E0,0E0,0E0,0E0,0E0,0E0,0E0,0E0,0E0,0E0,0E0,0E0,0E0,0E0,0E0,0E0,0E0,0E0,0E0,0E0,0E0,0E0,0E0,0E0,0E0,0E0,0E0],"parents":[2147483647,0,0,1,1,2,2,3,3,4,4,5,5,6,6,7,7,8,8,9,9,10,10,11,11,12,12,13,13,14,14,15,15,16,16,17,17,18,18,19,19,20,20,21,21,22,22,23,23,24,24,25,25,26,26,27,27,28,28,29,29,30,30,32,32,33,33,34,34,37,37,38,38,39,39,40,40,42,42,43,43,44,44,45,45,46,46,47,47,48,48,49,49,50,50,51,51,52,52,53,53,54,54,55,55,56,56,57,57,58,58,59,59,60,60,61,61,62,62],"right_children":[2,4,6,8,10,12,14,16,18,20,22,24,26,28,30,32,34,36,38,40,42,44,46,48,50,52,54,56,58,60,62,-1,64,66,68,-1,-1,70,72,74,76,-1,78,80,82,84,86,88,90,92,94,96,98,100,102,104,106,108,110,112,114,116,118,-1,-1,-1,-1,-1,-1,-1,-1,-1,-1,-1,-1,-1,-1,-1,-1,-1,-1,-1,-1,-1,-1,-1,-1,-1,-1,-1,-1,-1,-1,-1,-1,-1,-1,-1,-1,-1,-1,-1,-1,-1,-1,-1,-1,-1,-1,-1,-1,-1,-1,-1,-1,-1,-1,-1,-1],"split_conditions":[7.5422126E-1,7.337014E-1,8.091938E-1,1.6385587E-2,3.374186E-5,4.3422922E-5,6.8444503E-3,4.4013993E-3,5.393239E-5,2.8719465E-5,3.0122488E-4,7.6271933E-1,7.723212E-1,4.1332077E-3,1.39416875E-2,2.0999488E-4,6.5991064E-3,1.4927246E-1,1.8143466E-2,7.4095035E-1,1.8520268E-2,2.7005572E-3,1.816477E-1,6.8138856E-1,5.200095E-3,5.5092457E-4,7.625067E-3,5.1239077E-3,1.1319615E-2,1.497551E-2,1.11756876E-1,-1.0913939E-1,4.4992175E-3,7.140578E-4,4.2142865E-4,5.237234E-1,1.6551462E-1,1.0435024E-3,4.1339963E-4,1.550783E-1,7.521086E-1,3.4506585E-2,2.2396058E-1,7.4095035E-1,7.4595916E-1,7.4095035E-1,7.438366E-1,4.2151347E-5,7.611589E-1,6.4714053E-3,1.601744E-5,8.733906E-3,2.4865621E-3,7.950917E-1,2.6646562E-2,2.5068806E-4,3.6346538E-3,4.145202E-3,8.3847183E-1,3.3488203E-4,8.343929E-1,4.4458117E-2,2.10054E-1,2.8641626E-1,4.691889E-1,3.133359E-1,-3.8272012E-2,2.3565862E-2,2.730957E-1,1.3703325E-2,-3.2738316E-1,4.5915566E-2,1.7415796E-1,2.941964E-1,3.2950725E-2,-1.2425442E-1,6.7239776E-2,-3.304014E-1,-7.093082E-2,6.59065E-2,-2.1866716E-1,1.1572446E-1,5.585334E-1,1.1501997E-1,5.4223265E-2,-3.1239665E-1,7.673467E-2,9.284218E-2,-2.3745483E-1,-3.1601495E-1,2.7509676E-2,8.545208E-2,-1.7829444E-1,-1.00117095E-1,-5.4805834E-2,-1.4129603E-1,-1.0483653E-3,7.286422E-2,2.9932659E-3,-4.080183E-2,-1.4845481E-2,2.8211573E-2,3.9294168E-1,4.5020297E-1,6.0187057E-2,2.3203132E-1,6.3603103E-1,-2.4375434E-1,1.112766E-2,-1.0348791E-1,2.0091224E-1,2.563211E-1,9.682754E-2,7.707304E-1,-7.29393E-2,3.854562E-2,1.2753466E-1,-4.805983E-2,6.796018E-2],"split_indices":[5,5,5,3,1,1,4,0,1,1,2,5,5,2,2,2,2,4,3,5,4,1,4,2,4,4,1,4,3,3,0,0,3,1,1,0,0,1,1,2,5,0,3,5,5,5,5,1,5,2,1,1,0,5,4,1,3,3,5,1,5,4,3,0,0,0,0,0,0,0,0,0,0,0,0,0,0,0,0,0,0,0,0,0,0,0,0,0,0,0,0,0,0,0,0,0,0,0,0,0,0,0,0,0,0,0,0,0,0,0,0,0,0,0,0,0,0,0,0],"split_type":[0,0,0,0,0,0,0,0,0,0,0,0,0,0,0,0,0,0,0,0,0,0,0,0,0,0,0,0,0,0,0,0,0,0,0,0,0,0,0,0,0,0,0,0,0,0,0,0,0,0,0,0,0,0,0,0,0,0,0,0,0,0,0,0,0,0,0,0,0,0,0,0,0,0,0,0,0,0,0,0,0,0,0,0,0,0,0,0,0,0,0,0,0,0,0,0,0,0,0,0,0,0,0,0,0,0,0,0,0,0,0,0,0,0,0,0,0,0,0],"sum_hessian":[1.7910188E4,9.662456E2,1.6943941E4,2.3191527E2,7.343303E2,1.5048604E4,1.895338E3,1.0990339E2,1.2201189E2,3.321656E1,7.011138E2,2.3705159E3,1.2678088E4,6.564368E2,1.2389012E3,3.656529E1,7.33381E1,5.3602996E0,1.1665158E2,2.3672869E1,9.543693E0,1.0334822E1,6.9077893E2,8.4130104E1,2.2863857E3,2.5168032E3,1.0161285E4,2.3958037E2,4.1685645E2,2.0870673E2,1.0301945E3,1.1290329E0,3.5436256E1,1.4466448E1,5.887165E1,4.120653E0,1.2396466E0,6.5678654E0,1.1008372E2,2.4952142E0,2.1177654E1,1.8692768E0,7.674416E0,2.1140347E0,8.220787E0,6.782237E2,1.255529E1,7.917974E1,4.9503665E0,1.643909E2,2.1219949E3,6.3237038E1,2.4535662E3,9.706189E3,4.5509558E2,2.3516661E2,4.4137583E0,3.007161E2,1.16140366E2,2.0453989E2,4.1668324E0,8.857983E2,1.4439622E2,2.9100004E1,6.336252E0,2.695201E0,1.1771247E1,8.830906E0,5.0040745E1,3.9188511E0,2.649014E0,4.7152386E1,6.293133E1,1.2549044E0,1.2403097E0,1.4990748E1,6.1869073E0,6.6326895E0,1.0417265E0,1.0678675E0,1.0461671E0,3.6162958E0,4.604491E0,1.382189E2,5.4000476E2,5.5292187E0,7.026072E0,7.6052284E1,3.1274567E0,3.619905E0,1.3304614E0,1.1555326E1,1.5283557E2,9.1873267E2,1.2032622E3,4.0354458E1,2.2882584E1,1.0249991E2,2.3510662E3,7.369889E3,2.3362998E3,4.5073938E2,4.356197E0,2.2416608E0,2.3292496E2,1.9075866E0,2.5061717E0,4.5976286E0,2.9611844E2,1.050178E2,1.1122565E1,3.0588991E1,1.739509E2,3.117534E0,1.0492985E0,6.935636E2,1.9223465E2,1.05666794E2,3.8729435E1],"tree_param":{"num_deleted":"0","num_feature":"6","num_nodes":"119","size_leaf_vector":"1"}},{"base_weights":[-4.220283E-2,1.6402747E-1,-6.0252644E-2,4.0325812E-1,1.1476233E-1,-8.991389E-2,7.2776906E-2,6.272728E-1,3.1585377E-1,1.2608112E-1,-2.2288743E-1,-1.6947304E-1,-5.9664246E-2,3.7395243E-2,1.7666599E-1,4.5897862E-1,5.4875755E-1,1.0151438E0,2.7409092E-1,3.0273438E-1,1.10527806E-1,-4.4306308E-1,1.5639069E-2,-3.6163372E-1,-1.4694038E-1,-3.269002E-2,-1.3465884E-1,1.3251707E-2,2.6840246E-1,1.144253E-1,2.7177393E-1,-5.2065693E-2,6.337583E-1,6.501405E-1,4.90268E-1,-3.0677122E-1,2.9729694E-1,1.9422211E-1,1.7252233E0,-1.5537566E-1,1.4065845E-1,1.8225062E-1,-6.0846746E-1,-5.6445694E-1,1.7615964E-1,3.2348356E-1,-3.9601693E-1,-2.5184914E-1,-1.0702897E-1,-6.927221E-2,7.394996E-2,-2.2590037E-1,1.8454922E-2,-7.063511E-2,6.369934E-2,7.888737E-2,3.3913907E-1,1.4382738E-1,-6.876508E-1,8.582869E-1,1.6768923E-1,1.5748361E-1,-1.2642127E-1,3.1208634E-1,1.576239E-1,2.9722708E-1,-5.0882638E-2,2.4296112E-2,1.1939234E-1,7.074922E-2,-2.9689813E-1,6.292382E-1,9.388278E-2,2.0789387E-2,-1.2301708E-1,2.7012068E-1,4.0135182E-2,-1.9925232E-1,9.590877E-3,7.5481E-2,-2.715492E-1,9.546904E-2,-9.7148955E-2,1.9781145E-1,-1.19854964E-1,1.04885E-1,-1.2510894E-1,-1.1296855E-1,-5.471545E-2,-4.3390125E-2,1.8596823E-3,-5.7301647E-3,-6.139834E-2,3.7488114E-2,-4.0854933E-3,-5.6225512E-2,-1.2484022E-1,8.6408064E-2,-2.3645105E-2,4.15753E-2,-2.7369712E-2,3.5465326E-2,-1.7764306E-2,7.695767E-2,-1.143962E-1,1.7436697E-1,7.109818E-2,9.508886E-2,6.1405455E-3,-8.8961385E-3,-2.7498364E-1,1.7980633E-2,3.2355994E-1,3.7583852E-1,4.6066947E-2],"categories":[],"categories_nodes":[],"categories_segments":[],"categories_sizes":[],"default_left":[0,0,0,0,0,0,0,0,0,0,0,0,0,0,0,0,0,0,0,0,0,0,0,0,0,0,0,0,0,0,0,0,0,0,0,0,0,0,0,0,0,0,0,0,0,0,0,0,0,0,0,0,0,0,0,0,0,0,0,0,0,0,0,0,0,0,0,0,0,0,0,0,0,0,0,0,0,0,0,0,0,0,0,0,0,0,0,0,0,0,0,0,0,0,0,0,0,0,0,0,0,0,0,0,0,0,0,0,0,0,0,0,0,0,0],"id":2,"left_children":[1,3,5,7,9,11,13,15,17,19,21,23,25,27,29,-1,31,33,35,37,39,41,43,45,47,49,51,53,55,57,59,61,63,65,-1,-1,67,69,71,73,75,-1,77,79,81,83,85,87,89,91,93,95,97,99,101,103,105,107,109,111,113,-1,-1,-1,-1,-1,-1,-1,-1,-1,-1,-1,-1,-1,-1,-1,-1,-1,-1,-1,-1,-1,-1,-1,-1,-1,-1,-1,-1,-1,-1,-1,-1,-1,-1,-1,-1,-1,-1,-1,-1,-1,-1,-1,-1,-1,-1,-1,-1,-1,-1,-1,-1,-1,-1],"loss_changes":[6.603232E1,1.6779945E1,6.436194E1,4.5676155E0,4.5579796E0,3.2086403E1,1.0925474E1,3.9301186E0,4.8938675E0,3.1192665E0,2.0449195E0,1.5852203E1,1.9545681E1,1.2376977E1,4.4399548E0,0E0,3.2746162E0,1.1092567E0,5.373928E0,1.3908737E1,8.483908E0,3.8820555E0,1.9238411E0,9.193775E0,1.3746513E1,2.7738495E1,3.5715294E1,8.513986E0,2.788371E0,1.0905926E1,1.805041E1,2.0946774E0,1.9059868E0,2.3199272E0,0E0,0E0,3.5894241E0,4.512319E0,2.7152157E0,6.206792E0,4.8371735E0,0E0,6.621046E-1,1.4745533E0,1.2472801E0,4.863278E0,5.8944435E0,7.7786293E0,1.0154743E1,3.595501E1,8.114928E0,1.164814E1,2.5075153E1,3.268808E0,8.424834E0,4.870415E0,3.6360817E0,9.452519E0,2.4402037E0,7.791004E0,3.7083917E0,0E0,0E0,0E0,0E0,0E0,0E0,0E0,0E0,0E0,0E0,0E0,0E0,0E0,0E0,0E0,0E0,0E0,0E0,0E0,0E0,0E0,0E0,0E0,0E0,0E0,0E0,0E0,0E0,0E0,0E0,0E0,0E0,0E0,0E0,0E0,0E0,0E0,0E0,0E0,0E0,0E0,0E0,0E0,0E0,0E0,0E0,0E0,0E0,0E0,0E0,0E0,0E0,0E0,0E0],"parents":[2147483647,0,0,1,1,2,2,3,3,4,4,5,5,6,6,7,7,8,8,9,9,10,10,11,11,12,12,13,13,14,14,16,16,17,17,18,18,19,19,20,20,21,21,22,22,23,23,24,24,25,25,26,26,27,27,28,28,29,29,30,30,31,31,32,32,33,33,36,36,37,37,38,38,39,39,40,40,42,42,43,43,44,44,45,45,46,46,47,47,48,48,49,49,50,50,51,51,52,52,53,53,54,54,55,55,56,56,57,57,58,58,59,59,60,60],"right_children":[2,4,6,8,10,12,14,16,18,20,22,24,26,28,30,-1,32,34,36,38,40,42,44,46,48,50,52,54,56,58,60,62,64,66,-1,-1,68,70,72,74,76,-1,78,80,82,84,86,88,90,92,94,96,98,100,102,104,106,108,110,112,114,-1,-1,-1,-1,-1,-1,-1,-1,-1,-1,-1,-1,-1,-1,-1,-1,-1,-1,-1,-1,-1,-1,-1,-1,-1,-1,-1,-1,-1,-1,-1,-1,-1,-1,-1,-1,-1,-1,-1,-1,-1,-1,-1,-1,-1,-1,-1,-1,-1,-1,-1,-1,-1,-1],"split_conditions":[7.592763E-1,7.337014E-1,8.0204064E-1,8.543979E-3,1.6781804E-1,9.148778E-5,8.256338E-1,5.7691394E-4,6.566983E-5,2.8952472E-3,2.2396058E-1,5.200095E-3,3.4570828E-2,6.70258E-3,1.8230852E-2,4.5897862E-1,1.0907071E-3,1.550783E-1,7.881622E-5,2.618337E-3,3.2464967E-3,1.0257421E-5,9.313146E-6,4.4013993E-3,1.7038165E-5,9.66115E-3,4.185093E-2,8.649778E-3,1.1636991E-3,1.7024178E-2,2.3192018E-2,7.140578E-4,1.4003183E-3,1.11756876E-1,4.90268E-1,-3.0677122E-1,4.1339963E-4,2.3879153E-3,7.5526494E-1,7.53275E-1,3.746089E-3,1.8225062E-1,7.5856245E-1,1.816477E-1,2.6518485E-4,7.102491E-5,7.641649E-1,3.6918197E-2,4.185093E-2,1.1878877E-2,7.140578E-4,7.873142E-2,7.068901E-2,2.8952472E-3,6.4322956E-2,1.7441584E-3,3.4086695E-3,8.343929E-1,2.4160426E-4,8.3225816E-1,1.8814107E-2,1.5748361E-1,-1.2642127E-1,3.1208634E-1,1.576239E-1,2.9722708E-1,-5.0882638E-2,2.4296112E-2,1.1939234E-1,7.074922E-2,-2.9689813E-1,6.292382E-1,9.388278E-2,2.0789387E-2,-1.2301708E-1,2.7012068E-1,4.0135182E-2,-1.9925232E-1,9.590877E-3,7.5481E-2,-2.715492E-1,9.546904E-2,-9.7148955E-2,1.9781145E-1,-1.19854964E-1,1.04885E-1,-1.2510894E-1,-1.1296855E-1,-5.471545E-2,-4.3390125E-2,1.8596823E-3,-5.7301647E-3,-6.139834E-2,3.7488114E-2,-4.0854933E-3,-5.6225512E-2,-1.2484022E-1,8.6408064E-2,-2.3645105E-2,4.15753E-2,-2.7369712E-2,3.5465326E-2,-1.7764306E-2,7.695767E-2,-1.143962E-1,1.7436697E-1,7.109818E-2,9.508886E-2,6.1405455E-3,-8.8961385E-3,-2.7498364E-1,1.7980633E-2,3.2355994E-1,3.7583852E-1,4.6066947E-2],"split_indices":[5,5,5,2,0,1,5,1,1,0,3,4,2,1,4,0,1,2,1,4,4,1,1,0,1,4,4,4,4,4,2,1,2,0,0,0,1,4,5,5,2,0,5,4,1,1,5,4,4,0,1,0,0,0,2,2,2,5,1,5,4,0,0,0,0,0,0,0,0,0,0,0,0,0,0,0,0,0,0,0,0,0,0,0,0,0,0,0,0,0,0,0,0,0,0,0,0,0,0,0,0,0,0,0,0,0,0,0,0,0,0,0,0,0,0],"split_type":[0,0,0,0,0,0,0,0,0,0,0,0,0,0,0,0,0,0,0,0,0,0,0,0,0,0,0,0,0,0,0,0,0,0,0,0,0,0,0,0,0,0,0,0,0,0,0,0,0,0,0,0,0,0,0,0,0,0,0,0,0,0,0,0,0,0,0,0,0,0,0,0,0,0,0,0,0,0,0,0,0,0,0,0,0,0,0,0,0,0,0,0,0,0,0,0,0,0,0,0,0,0,0,0,0,0,0,0,0,0,0,0,0,0,0],"sum_hessian":[1.7735438E4,1.4266774E3,1.630876E4,2.4240034E2,1.184277E3,1.3335666E4,2.9730938E3,6.629966E1,1.7610068E2,1.1464713E3,3.7805763E1,3.6723828E3,9.663283E3,2.2187952E3,7.542986E2,3.8261614E0,6.2473495E1,8.610839E0,1.6748985E2,9.127808E1,1.0551932E3,1.9213207E1,1.8592556E1,3.8384726E2,3.2885354E3,7.108072E3,2.5552114E3,2.0097999E3,2.0899529E2,4.5726056E2,2.9703802E2,7.790965E0,5.4682533E1,6.706777E0,1.9040617E0,2.187651E0,1.653022E2,8.586458E1,5.413504E0,1.0697551E2,9.4821765E2,2.2499337E0,1.6963272E1,3.4843283E0,1.5108227E1,1.7941341E1,3.659059E2,9.048335E2,2.383702E3,5.29277E3,1.8153018E3,1.6008053E3,9.5440607E2,7.546051E2,1.2551948E3,5.738001E1,1.5161528E2,4.4188293E2,1.5377626E1,4.3676533E1,2.5336148E2,2.8762069E0,4.9147587E0,9.696834E0,4.49857E1,4.590681E0,2.1160963E0,5.3074287E1,1.12227905E2,8.3722855E1,2.141718E0,3.9003296E0,1.5131747E0,5.7222824E1,4.975268E1,7.3374195E0,9.4088025E2,1.5571738E1,1.3915349E0,1.1032805E0,2.3810477E0,1.2048273E1,3.0599537E0,1.231029E1,5.63105E0,9.600415E0,3.563055E2,3.2211096E2,5.8272253E2,1.7892024E3,5.944996E2,3.862549E3,1.4302208E3,1.1468247E3,6.684771E2,1.333117E3,2.676884E2,2.5254932E2,7.0185675E2,6.711788E1,6.8748724E2,8.695457E2,3.8564908E2,4.171918E1,1.5660826E1,4.3597954E1,1.0801733E2,1.8319601E2,2.5868692E2,4.261189E0,1.1116438E1,9.719019E0,3.395751E1,2.1305945E0,2.5123088E2],"tree_param":{"num_deleted":"0","num_feature":"6","num_nodes":"115","size_leaf_vector":"1"}},{"base_weights":[-3.029606E-2,9.9422365E-2,-4.50478E-2,4.3880114E-1,8.256064E-2,-6.872811E-2,4.5691106E-2,5.29533E-1,-2.0786303E-1,1.8580984E-1,5.8534756E-2,-1.3332042E-1,-4.4249475E-2,2.5229882E-2,1.3397439E-1,5.739836E-1,-5.41491E-1,-7.6278937E-1,5.1846886E-1,2.0308746E-1,-3.1548104E-1,6.2073395E-2,-4.8164603E-1,-2.1176866E-1,-1.0171587E-1,-3.1606697E-2,-1.4785364E-1,8.932649E-3,1.8766546E-1,6.008626E-2,2.578966E-1,1.0385168E0,4.2340666E-1,-2.5037026E-1,4.6019987E-3,-3.5098683E-2,-3.0841336E-1,3.7225476E-1,-2.8404906E-1,6.545989E-1,1.8052182E-1,-3.1120086E-1,1.437033E-1,5.0931197E-2,3.008213E-1,-3.4241322E-2,-2.4573241E-1,-1.7261948E-1,-4.6393508E-1,-1.6884811E-2,-1.4291333E-1,-4.3160073E-2,1.762215E-1,-2.8050908E-1,3.8993012E-2,5.911325E-2,-5.7053044E-2,4.1754257E-2,2.7415365E-1,1.4366625E-1,-1.7640573E-1,5.811745E-1,8.3753735E-2,1.5156604E-1,4.163076E-1,1.01299934E-1,4.4312385E-1,-2.6205975E-1,1.2754223E-1,4.193848E-1,1.14391714E-1,6.0197134E-2,-9.612321E-2,-5.905774E-2,1.7778271E-1,1.7502768E-2,-1.0442623E-1,1.8193735E-2,1.9996862E-1,1.5480788E-1,-1.8167217E-1,-8.4319524E-2,-2.9611614E-2,-2.0593737E-1,-1.0848908E-1,6.336065E-2,-1.1908945E-2,-7.6333076E-2,-2.3035467E-2,3.542534E-3,-2.3105917E-2,-2.2624651E-2,7.2519995E-2,4.630269E-2,-8.829255E-2,-8.758271E-3,7.239953E-2,-3.8865983E-2,2.49725E-2,-4.4381194E-2,-8.63008E-3,2.6677805E-1,-3.0406439E-3,-5.7889476E-2,9.300705E-2,1.2928179E-1,1.1655083E-2,1.2230377E-2,-1.2301193E-1,1.3436949E-1,3.4234425E-1,-1.1764807E-1,4.785489E-2],"categories":[],"categories_nodes":[],"categories_segments":[],"categories_sizes":[],"default_left":[0,0,0,0,0,0,0,0,0,0,0,0,0,0,0,0,0,0,0,0,0,0,0,0,0,0,0,0,0,0,0,0,0,0,0,0,0,0,0,0,0,0,0,0,0,0,0,0,0,0,0,0,0,0,0,0,0,0,0,0,0,0,0,0,0,0,0,0,0,0,0,0,0,0,0,0,0,0,0,0,0,0,0,0,0,0,0,0,0,0,0,0,0,0,0,0,0,0,0,0,0,0,0,0,0,0,0,0,0,0,0,0,0],"id":3,"left_children":[1,3,5,7,9,11,13,15,17,19,21,23,25,27,29,31,33,35,37,39,41,43,45,47,49,51,53,55,57,59,61,63,65,-1,-1,-1,-1,-1,67,69,71,-1,73,75,77,79,-1,81,83,85,87,89,91,93,95,97,99,101,103,105,107,109,111,-1,-1,-1,-1,-1,-1,-1,-1,-1,-1,-1,-1,-1,-1,-1,-1,-1,-1,-1,-1,-1,-1,-1,-1,-1,-1,-1,-1,-1,-1,-1,-1,-1,-1,-1,-1,-1,-1,-1,-1,-1,-1,-1,-1,-1,-1,-1,-1,-1,-1],"loss_changes":[3.368321E1,1.0249563E1,3.396051E1,5.088171E0,4.2399282E0,1.9810719E1,5.905856E0,3.8664856E0,4.8927217E0,2.8617458E0,2.6898832E0,8.516983E0,1.1902197E1,7.032106E0,5.6183596E0,4.6102676E0,5.8247566E-1,1.0325475E0,3.4991243E0,3.0694666E0,3.84617E0,3.6647568E0,1.3565736E0,9.674362E0,8.583719E0,1.9463673E1,2.450889E1,8.002546E0,3.0452986E0,7.6701646E0,1.2872881E1,2.4617672E0,4.579482E0,0E0,0E0,0E0,0E0,0E0,1.7865076E0,2.4149313E0,3.083663E0,0E0,1.2931648E0,3.9325309E0,5.3600645E0,1.8802389E0,0E0,6.8407803E0,2.7611542E0,4.1928906E0,1.2176094E1,1.4289452E1,7.056157E0,3.5145721E0,5.6809382E0,6.2597528E0,2.6797843E0,4.02513E0,2.6049576E0,8.6046295E0,5.163932E0,5.4733257E0,5.483271E0,0E0,0E0,0E0,0E0,0E0,0E0,0E0,0E0,0E0,0E0,0E0,0E0,0E0,0E0,0E0,0E0,0E0,0E0,0E0,0E0,0E0,0E0,0E0,0E0,0E0,0E0,0E0,0E0,0E0,0E0,0E0,0E0,0E0,0E0,0E0,0E0,0E0,0E0,0E0,0E0,0E0,0E0,0E0,0E0,0E0,0E0,0E0,0E0,0E0,0E0],"parents":[2147483647,0,0,1,1,2,2,3,3,4,4,5,5,6,6,7,7,8,8,9,9,10,10,11,11,12,12,13,13,14,14,15,15,16,16,17,17,18,18,19,19,20,20,21,21,22,22,23,23,24,24,25,25,26,26,27,27,28,28,29,29,30,30,31,31,32,32,38,38,39,39,40,40,42,42,43,43,44,44,45,45,47,47,48,48,49,49,50,50,51,51,52,52,53,53,54,54,55,55,56,56,57,57,58,58,59,59,60,60,61,61,62,62],"right_children":[2,4,6,8,10,12,14,16,18,20,22,24,26,28,30,32,34,36,38,40,42,44,46,48,50,52,54,56,58,60,62,64,66,-1,-1,-1,-1,-1,68,70,72,-1,74,76,78,80,-1,82,84,86,88,90,92,94,96,98,100,102,104,106,108,110,112,-1,-1,-1,-1,-1,-1,-1,-1,-1,-1,-1,-1,-1,-1,-1,-1,-1,-1,-1,-1,-1,-1,-1,-1,-1,-1,-1,-1,-1,-1,-1,-1,-1,-1,-1,-1,-1,-1,-1,-1,-1,-1,-1,-1,-1,-1,-1,-1,-1,-1],"split_conditions":[7.621881E-1,7.1464455E-1,8.006561E-1,1.1383064E-1,7.4095035E-1,9.148778E-5,8.297875E-1,9.043261E-2,1.06712185E-1,1.6259664E-1,3.570784E-2,1.118344E-2,7.068901E-2,7.137592E-3,2.028674E-2,7.2922773E-4,1.11756876E-1,1.3792971E-1,1.4214696E-1,5.393239E-5,3.484197E-2,1.02690235E-2,8.91777E-4,2.9381404E-2,4.9875017E-2,3.4638245E-2,6.3032284E-2,5.4467E-4,1.6370134E-3,1.6279181E-2,3.744719E-2,3.7651556E-4,5.937903E-2,-2.5037026E-1,4.6019987E-3,-3.5098683E-2,-3.0841336E-1,3.7225476E-1,2.3687637E-1,2.464194E-2,1.04159966E-1,-3.1120086E-1,2.810528E-1,7.625067E-3,2.802805E-3,7.5422126E-1,-2.4573241E-1,5.200095E-3,3.296226E-2,7.686143E-1,4.185093E-2,7.7980167E-1,7.716246E-1,9.830675E-5,7.911365E-1,5.28389E-3,8.044936E-1,7.625067E-3,7.625067E-3,8.343929E-1,1.1757481E-3,4.5475196E-2,2.9440064E-2,1.5156604E-1,4.163076E-1,1.01299934E-1,4.4312385E-1,-2.6205975E-1,1.2754223E-1,4.193848E-1,1.14391714E-1,6.0197134E-2,-9.612321E-2,-5.905774E-2,1.7778271E-1,1.7502768E-2,-1.0442623E-1,1.8193735E-2,1.9996862E-1,1.5480788E-1,-1.8167217E-1,-8.4319524E-2,-2.9611614E-2,-2.0593737E-1,-1.0848908E-1,6.336065E-2,-1.1908945E-2,-7.6333076E-2,-2.3035467E-2,3.542534E-3,-2.3105917E-2,-2.2624651E-2,7.2519995E-2,4.630269E-2,-8.829255E-2,-8.758271E-3,7.239953E-2,-3.8865983E-2,2.49725E-2,-4.4381194E-2,-8.63008E-3,2.6677805E-1,-3.0406439E-3,-5.7889476E-2,9.300705E-2,1.2928179E-1,1.1655083E-2,1.2230377E-2,-1.2301193E-1,1.3436949E-1,3.4234425E-1,-1.1764807E-1,4.785489E-2],"split_indices":[5,5,5,4,5,1,5,2,0,4,1,4,0,1,4,1,0,4,0,1,0,1,0,0,3,4,4,1,4,0,2,1,4,0,0,0,0,0,4,0,0,0,4,1,4,5,0,4,0,5,4,5,5,1,5,4,5,1,1,5,1,4,4,0,0,0,0,0,0,0,0,0,0,0,0,0,0,0,0,0,0,0,0,0,0,0,0,0,0,0,0,0,0,0,0,0,0,0,0,0,0,0,0,0,0,0,0,0,0,0,0,0,0],"split_type":[0,0,0,0,0,0,0,0,0,0,0,0,0,0,0,0,0,0,0,0,0,0,0,0,0,0,0,0,0,0,0,0,0,0,0,0,0,0,0,0,0,0,0,0,0,0,0,0,0,0,0,0,0,0,0,0,0,0,0,0,0,0,0,0,0,0,0,0,0,0,0,0,0,0,0,0,0,0,0,0,0,0,0,0,0,0,0,0,0,0,0,0,0,0,0,0,0,0,0,0,0,0,0,0,0,0,0,0,0,0,0,0,0],"sum_hessian":[1.759892E4,1.7964268E3,1.5802494E4,8.384479E1,1.712582E3,1.25321875E4,3.270307E3,7.3687065E1,1.0157722E1,3.220153E2,1.3905667E3,3.442896E3,9.089291E3,2.6560142E3,6.1429285E2,7.119629E1,2.4907727E0,5.729852E0,4.4278703E0,3.1186145E2,1.0153837E1,1.3823959E3,8.170766E0,9.870811E2,2.4558147E3,8.1019214E3,9.8736957E2,2.414792E3,2.4122215E2,3.857662E2,2.2852666E2,1.5985073E1,5.521122E1,1.3050866E0,1.1856861E0,2.0878386E0,3.6420135E0,2.042834E0,2.3850362E0,1.3511146E1,2.983503E2,3.4582512E0,6.6955857E0,1.3219164E3,6.047959E1,3.9866977E0,4.1840687E0,8.5588794E2,1.3119319E2,8.0324194E2,1.6525728E3,7.6759976E3,4.2592404E2,5.771262E2,4.1024338E2,1.3717284E3,1.0430636E3,9.0323425E1,1.5089873E2,2.8532156E2,1.00444626E2,7.9187E1,1.4933966E2,7.2931347E0,8.691938E0,5.2277706E1,2.9335134E0,1.175893E0,1.2091432E0,2.5258095E0,1.0985336E1,2.8739764E2,1.0952685E1,4.126491E0,2.5690944E0,1.298649E3,2.3267294E1,3.721015E1,2.326944E1,2.0800965E0,1.9066013E0,3.4577286E2,5.1011505E2,3.952109E1,9.1672104E1,7.2279785E1,7.3096216E2,6.1406354E2,1.0385093E3,2.926196E3,4.749802E3,8.7949715E1,3.379743E2,1.743771E1,5.5968854E2,3.0747977E2,1.0276359E2,1.5504225E2,1.216686E3,2.4657605E2,7.9648755E2,4.2800837E0,8.604334E1,1.0448779E1,1.4044994E2,7.5442406E1,2.0987917E2,5.248391E1,4.7960716E1,6.5417244E1,1.3769756E1,1.9935518E1,1.2940414E2],"tree_param":{"num_deleted":"0","num_feature":"6","num_nodes":"113","size_leaf_vector":"1"}},{"base_weights":[-2.16828E-2,-1.1632654E-1,-1.0356494E-2,-6.44985E-1,-1.0962828E-1,1.3114746E-1,-1.7704455E-2,3.0596137E-1,-8.997921E-1,-1.18095964E-1,1.06006354E-1,1.4003508E-1,-3.0180633E-1,-2.836259E-2,5.8424637E-2,-2.1902098E-1,6.9861394E-1,-3.7057623E-1,-9.661639E-1,9.053785E-1,-1.19875304E-1,1.0553367E0,4.9782094E-2,3.3501613E-1,1.1623659E-1,-5.296091E-1,3.647449E-1,-1.0988586E-1,-1.910409E-2,3.3281657E-1,4.72574E-2,3.3670765E-1,-1.5376592E-2,-2.2459257E-1,6.250596E-2,-3.2025892E-1,-7.8711785E-2,4.6468818E-1,-6.915501E-2,-6.9718254E-1,-1.1555542E-1,5.1436526E-1,-7.9381675E-2,-3.4845924E-1,2.5723326E-1,1.0856947E0,2.738121E-1,1.08570546E-1,7.622474E-1,-3.243212E-1,-3.2160628E-1,-9.6869476E-2,-7.272116E-1,4.8824977E-2,-4.756816E-2,-1.3214037E-1,4.3063E-1,6.1833743E-2,-1.761348E-1,-2.8428061E-2,-2.5333938E-1,-4.7590453E-2,-2.201352E-2,1.9154644E-1,-1.4249887E-1,-8.301374E-2,1.4864637E-1,1.5498998E-2,4.0386233E-1,-4.1202024E-2,1.0850317E-1,3.468171E-2,-1.8348025E-1,-1.1436909E-1,3.139554E-1,-2.0601927E-1,1.6524343E-1,-3.2093417E-2,1.7060919E-1,-2.5389707E-1,2.1628791E-2,3.8102395E-3,5.567302E-2,-3.720489E-2,-4.435434E-3,-1.7889042E-1,1.452474E-1,3.83536E-1,1.0364933E-1,1.1507555E-1,1.3042503E-2,-6.8497114E-2,3.1269997E-1],"categories":[],"categories_nodes":[],"categories_segments":[],"categories_sizes":[],"default_left":[0,0,0,0,0,0,0,0,0,0,0,0,0,0,0,0,0,0,0,0,0,0,0,0,0,0,0,0,0,0,0,0,0,0,0,0,0,0,0,0,0,0,0,0,0,0,0,0,0,0,0,0,0,0,0,0,0,0,0,0,0,0,0,0,0,0,0,0,0,0,0,0,0,0,0,0,0,0,0,0,0,0,0,0,0,0,0,0,0,0,0,0,0],"id":4,"left_children":[1,3,5,7,9,11,13,15,17,19,21,23,25,27,29,-1,31,33,35,37,39,41,43,45,47,49,-1,51,53,55,57,-1,-1,-1,-1,-1,-1,-1,-1,59,61,-1,-1,63,65,67,69,71,73,75,-1,77,79,81,83,85,87,89,91,-1,-1,-1,-1,-1,-1,-1,-1,-1,-1,-1,-1,-1,-1,-1,-1,-1,-1,-1,-1,-1,-1,-1,-1,-1,-1,-1,-1,-1,-1,-1,-1,-1,-1],"loss_changes":[1.8752613E1,6.550379E0,1.6249733E1,5.894314E0,3.3860931E0,3.0108843E0,1.2055362E1,2.8071594E0,2.9327583E-1,3.346939E0,3.7017937E0,3.4721098E0,6.118472E0,9.834121E0,5.5755205E0,0E0,1.5210576E0,9.633163E-1,8.509512E-1,2.6986709E0,4.3487415E0,3.8326874E0,5.6624613E0,3.4598827E0,3.264412E0,1.2630248E0,0E0,1.0607407E1,2.2632421E1,3.2946625E0,5.7239966E0,0E0,0E0,0E0,0E0,0E0,0E0,0E0,0E0,1.072752E0,3.193592E0,0E0,0E0,3.2416003E0,5.8524604E0,1.5002422E0,2.8295102E0,3.4607882E0,2.9215002E0,4.1611047E0,0E0,8.824458E0,2.6589212E0,1.7073307E1,2.0670555E1,4.047245E0,3.8205996E0,9.716675E0,7.088545E0,0E0,0E0,0E0,0E0,0E0,0E0,0E0,0E0,0E0,0E0,0E0,0E0,0E0,0E0,0E0,0E0,0E0,0E0,0E0,0E0,0E0,0E0,0E0,0E0,0E0,0E0,0E0,0E0,0E0,0E0,0E0,0E0,0E0,0E0],"parents":[2147483647,0,0,1,1,2,2,3,3,4,4,5,5,6,6,7,7,8,8,9,9,10,10,11,11,12,12,13,13,14,14,16,16,17,17,18,18,19,19,20,20,21,21,22,22,23,23,24,24,25,25,27,27,28,28,29,29,30,30,39,39,40,40,43,43,44,44,45,45,46,46,47,47,48,48,49,49,51,51,52,52,53,53,54,54,55,55,56,56,57,57,58,58],"right_children":[2,4,6,8,10,12,14,16,18,20,22,24,26,28,30,-1,32,34,36,38,40,42,44,46,48,50,-1,52,54,56,58,-1,-1,-1,-1,-1,-1,-1,-1,60,62,-1,-1,64,66,68,70,72,74,76,-1,78,80,82,84,86,88,90,92,-1,-1,-1,-1,-1,-1,-1,-1,-1,-1,-1,-1,-1,-1,-1,-1,-1,-1,-1,-1,-1,-1,-1,-1,-1,-1,-1,-1,-1,-1,-1,-1,-1,-1],"split_conditions":[3.374186E-5,2.802805E-3,7.5085306E-1,6.5130475E-3,8.085737E-1,1.816477E-1,8.0983484E-1,4.561069E-3,7.751233E-1,6.258435E-3,7.213132E-3,7.1464455E-1,4.1085082E-1,1.7635392E-3,8.1053674E-1,-2.1902098E-1,2.8719465E-5,7.7326846E-1,3.1223197E-5,2.7408469E-5,1.0149114E-2,8.142097E-1,1.09090135E-1,1.3005029E-3,1.4927246E-1,2.5085497E-1,3.647449E-1,8.860505E-3,1.1920335E-2,3.2464967E-3,1.0579014E-1,3.3670765E-1,-1.5376592E-2,-2.2459257E-1,6.250596E-2,-3.2025892E-1,-7.8711785E-2,4.6468818E-1,-6.915501E-2,8.259459E-3,1.601744E-5,5.1436526E-1,-7.9381675E-2,1.3045452E-5,1.0257421E-5,4.2364406E-4,5.28389E-3,1.6781804E-1,6.8921E-2,1.8309192E-1,-3.2160628E-1,3.570784E-2,7.732724E-4,6.4021195E-3,1.0756401E-2,5.120635E-3,4.527282E-3,8.710804E-5,1.9671235E-3,-2.8428061E-2,-2.5333938E-1,-4.7590453E-2,-2.201352E-2,1.9154644E-1,-1.4249887E-1,-8.301374E-2,1.4864637E-1,1.5498998E-2,4.0386233E-1,-4.1202024E-2,1.0850317E-1,3.468171E-2,-1.8348025E-1,-1.1436909E-1,3.139554E-1,-2.0601927E-1,1.6524343E-1,-3.2093417E-2,1.7060919E-1,-2.5389707E-1,2.1628791E-2,3.8102395E-3,5.567302E-2,-3.720489E-2,-4.435434E-3,-1.7889042E-1,1.452474E-1,3.83536E-1,1.0364933E-1,1.1507555E-1,1.3042503E-2,-6.8497114E-2,3.1269997E-1],"split_indices":[1,4,5,0,5,4,5,0,5,0,4,5,2,4,5,0,1,5,1,1,3,5,0,0,4,2,0,2,2,4,2,0,0,0,0,0,0,0,0,0,1,0,0,1,1,0,4,0,2,3,0,1,1,4,4,1,4,1,1,0,0,0,0,0,0,0,0,0,0,0,0,0,0,0,0,0,0,0,0,0,0,0,0,0,0,0,0,0,0,0,0,0,0],"split_type":[0,0,0,0,0,0,0,0,0,0,0,0,0,0,0,0,0,0,0,0,0,0,0,0,0,0,0,0,0,0,0,0,0,0,0,0,0,0,0,0,0,0,0,0,0,0,0,0,0,0,0,0,0,0,0,0,0,0,0,0,0,0,0,0,0,0,0,0,0,0,0,0,0,0,0,0,0,0,0,0,0,0,0,0,0,0,0,0,0,0,0,0,0],"sum_hessian":[1.749382E4,1.8687863E3,1.5625034E4,2.218956E1,1.8465967E3,7.704861E2,1.4854548E4,4.6468053E0,1.7542755E1,1.7772584E3,6.933823E1,7.5565076E2,1.4835323E1,1.3030846E4,1.8237017E3,1.040932E0,3.605873E0,2.6885927E0,1.4854162E1,2.2031138E0,1.7750553E3,2.8833616E0,6.6454865E1,8.077593E1,6.748748E2,1.3465162E1,1.3701609E0,1.3278599E3,1.1702986E4,7.0192314E1,1.7535094E3,1.9865508E0,1.6193224E0,1.4491122E0,1.2394806E0,1.2532327E1,2.3218355E0,1.1741881E0,1.0289257E0,1.1992513E1,1.7630627E3,1.7235943E0,1.1597673E0,2.252815E1,4.3926712E1,4.82745E0,7.594849E1,6.6811456E2,6.7602873E0,1.0927377E1,2.5377855E0,1.301573E3,2.6286898E1,3.4555806E3,8.247405E3,1.213892E1,5.805339E1,1.6467802E3,1.06729195E2,2.678822E0,9.31369E0,8.708349E2,8.922279E2,2.1003375E0,2.0427813E1,1.3503339E1,3.0423374E1,1.2126194E0,3.6148303E0,1.3273588E1,6.26749E1,6.624824E2,5.63214E0,1.2780901E0,5.482197E0,7.8795733E0,3.0478032E0,1.2829272E3,1.8645723E1,2.2826498E1,3.4603996E0,2.7343665E3,7.212141E2,2.474438E3,5.772968E3,6.9425964E0,5.1963234E0,4.0182996E0,5.403509E1,8.781734E1,1.5589629E3,1.0312482E2,3.6043847E0],"tree_param":{"num_deleted":"0","num_feature":"6","num_nodes":"93","size_leaf_vector":"1"}},{"base_weights":[-1.5449122E-2,5.2299285E-3,-5.0603613E-2,-1.7514316E-2,9.024997E-2,-9.660353E-2,7.824289E-3,1.2011552E-2,-7.605497E-2,8.15049E-2,4.0178812E-1,-1.24491505E-1,2.2325926E-2,8.835886E-2,-6.260404E-2,-1.17220115E-2,1.300698E-1,5.7771433E-2,-1.06832296E-1,4.606772E-2,1.4754178E-1,4.882821E-1,-5.731036E-1,-4.1694784E-1,-1.1599648E-1,4.278511E-2,-2.1844482E-1,7.815329E-2,5.9198344E-1,-1.6265924E-1,1.4099911E-2,-3.3938307E-2,6.745197E-2,1.0445061E0,1.18745655E-1,4.126377E-2,1.142718E0,-2.6506957E-1,-8.4317E-2,5.105128E-2,-3.7565425E-1,2.430896E-1,2.5275894E-2,1.3127907E-1,8.285654E-1,-3.0880028E-1,9.6839406E-2,-8.274718E-1,-3.3933586E-1,-4.7807434E-1,-1.0989622E-1,2.4853078E-1,1.5229854E-2,9.8542416E-1,-3.1989196E-1,1.12318546E-1,-8.8485636E-2,7.978698E-1,-2.7283175E-2,-1.7646255E-1,7.9363286E-1,2.7779523E-1,-1.0836432E-2,-8.323219E-3,-1.4550787E-1,-4.384408E-2,2.6666539E-2,1.8204069E-1,4.2908293E-1,9.446869E-2,2.6960243E-2,3.186066E-2,-6.6209316E-2,-4.77663E-2,5.487297E-1,-5.330587E-2,-1.1519393E-1,-6.5204683E-3,-3.9165363E-2,2.6853515E-2,-2.2902299E-4,3.4812382E-1,-1.7489518E-1,6.337374E-2,4.4099855E-1,-3.724045E-2,3.495669E-2,1.3674963E-1,-2.7554119E-2,-1.1657148E-2,3.6264575E-1,-3.231516E-1,-3.8380347E-2,1.0442522E-1,-1.3095021E-1,-6.970331E-3,-2.3033576E-1,-4.6972144E-2,-2.2175707E-2,2.7288976E-1,3.9915122E-2,-6.525311E-2,1.7255913E-2,2.3854308E-2,4.059403E-1,-1.9151649E-1,-1.6941432E-2,-6.862533E-2,3.904999E-2,3.3292923E-2,-6.7463055E-2,1.1887497E-2,3.307349E-1,3.2895637E-1,-1.3690999E-1,-1.0029909E-1,-3.5375826E-2,5.073995E-1,6.3987106E-2,3.3772986E-2,2.1570304E-1,2.9920982E-2,-1.083293E-2],"categories":[],"categories_nodes":[],"categories_segments":[],"categories_sizes":[],"default_left":[0,0,0,0,0,0,0,0,0,0,0,0,0,0,0,0,0,0,0,0,0,0,0,0,0,0,0,0,0,0,0,0,0,0,0,0,0,0,0,0,0,0,0,0,0,0,0,0,0,0,0,0,0,0,0,0,0,0,0,0,0,0,0,0,0,0,0,0,0,0,0,0,0,0,0,0,0,0,0,0,0,0,0,0,0,0,0,0,0,0,0,0,0,0,0,0,0,0,0,0,0,0,0,0,0,0,0,0,0,0,0,0,0,0,0,0,0,0,0,0,0,0,0],"id":5,"left_children":[1,3,5,7,9,11,13,15,17,19,21,23,25,27,29,31,33,35,37,39,41,43,45,47,49,51,53,55,57,59,61,63,65,67,69,71,73,75,77,79,81,83,85,87,89,-1,-1,91,93,95,97,99,101,103,105,107,109,111,113,115,117,119,121,-1,-1,-1,-1,-1,-1,-1,-1,-1,-1,-1,-1,-1,-1,-1,-1,-1,-1,-1,-1,-1,-1,-1,-1,-1,-1,-1,-1,-1,-1,-1,-1,-1,-1,-1,-1,-1,-1,-1,-1,-1,-1,-1,-1,-1,-1,-1,-1,-1,-1,-1,-1,-1,-1,-1,-1,-1,-1,-1,-1],"loss_changes":[1.2663531E1,2.1211971E1,1.7340921E1,1.4959981E1,6.274765E0,1.19755745E1,1.6130095E1,1.6123394E1,1.1957861E1,5.266077E0,5.5887165E0,7.2168655E0,3.3912191E0,6.772648E0,1.1646107E1,8.430563E0,9.8498535E0,9.681687E0,8.384045E0,3.1039977E0,9.181019E0,6.981983E0,2.6173987E0,2.3369493E0,6.2273254E0,3.588367E0,6.901968E0,7.4197006E0,3.3620253E0,8.831654E0,5.6562304E0,1.0443309E1,4.821948E0,1.099843E0,5.367216E0,9.143323E0,7.5329046E0,2.9808903E0,5.9781E0,2.892695E0,6.174029E0,1.6931862E1,4.7328253E0,2.1906626E0,9.841881E0,0E0,0E0,2.0225601E0,4.880336E0,6.1502953E0,4.6860847E0,5.5872498E0,5.522726E0,1.3703017E0,4.200485E0,6.6072416E0,6.0644054E0,4.5047092E0,4.118778E0,5.967039E0,4.6150346E0,5.3362966E0,2.2012727E0,0E0,0E0,0E0,0E0,0E0,0E0,0E0,0E0,0E0,0E0,0E0,0E0,0E0,0E0,0E0,0E0,0E0,0E0,0E0,0E0,0E0,0E0,0E0,0E0,0E0,0E0,0E0,0E0,0E0,0E0,0E0,0E0,0E0,0E0,0E0,0E0,0E0,0E0,0E0,0E0,0E0,0E0,0E0,0E0,0E0,0E0,0E0,0E0,0E0,0E0,0E0,0E0,0E0,0E0,0E0,0E0,0E0,0E0,0E0,0E0],"parents":[2147483647,0,0,1,1,2,2,3,3,4,4,5,5,6,6,7,7,8,8,9,9,10,10,11,11,12,12,13,13,14,14,15,15,16,16,17,17,18,18,19,19,20,20,21,21,22,22,23,23,24,24,25,25,26,26,27,27,28,28,29,29,30,30,31,31,32,32,33,33,34,34,35,35,36,36,37,37,38,38,39,39,40,40,41,41,42,42,43,43,44,44,47,47,48,48,49,49,50,50,51,51,52,52,53,53,54,54,55,55,56,56,57,57,58,58,59,59,60,60,61,61,62,62],"right_children":[2,4,6,8,10,12,14,16,18,20,22,24,26,28,30,32,34,36,38,40,42,44,46,48,50,52,54,56,58,60,62,64,66,68,70,72,74,76,78,80,82,84,86,88,90,-1,-1,92,94,96,98,100,102,104,106,108,110,112,114,116,118,120,122,-1,-1,-1,-1,-1,-1,-1,-1,-1,-1,-1,-1,-1,-1,-1,-1,-1,-1,-1,-1,-1,-1,-1,-1,-1,-1,-1,-1,-1,-1,-1,-1,-1,-1,-1,-1,-1,-1,-1,-1,-1,-1,-1,-1,-1,-1,-1,-1,-1,-1,-1,-1,-1,-1,-1,-1,-1,-1,-1,-1],"split_conditions":[3.0977517E-2,1.1658455E-2,4.185093E-2,1.19958855E-2,3.2174632E-2,7.988083E-1,1.06712185E-1,6.059851E-3,7.721017E-1,7.9220754E-1,5.6135874E-2,8.030184E-3,1.6949979E-3,3.4860591E-3,8.9707725E-2,5.6900764E-3,4.049979E-3,2.975131E-2,4.2461352E-3,3.1667292E-2,2.1908604E-2,2.2880679E-2,4.0097293E-3,7.745141E-1,4.358239E-6,3.434741E-2,8.006561E-1,5.159123E-4,6.192164E-2,1.2038344E-3,1.2368907E-1,5.39416E-3,2.7985137E-4,3.6346538E-3,1.4794899E-4,2.131351E-2,9.132942E-3,4.5194587E-4,7.8642243E-1,7.7837294E-1,7.5085306E-1,2.2499885E-2,2.5202874E-2,1.5078182E-4,1.2819686E-4,-3.0880028E-1,9.6839406E-2,4.0655166E-2,7.7821463E-1,9.904029E-2,2.120104E-2,1.1828086E-2,3.7835214E-2,2.2469934E-3,8.1605285E-1,1.601744E-5,5.8342084E-2,7.7389777E-1,7.632449E-1,7.771601E-1,1.1981667E-1,1.2383989E-1,7.708411E-1,-8.323219E-3,-1.4550787E-1,-4.384408E-2,2.6666539E-2,1.8204069E-1,4.2908293E-1,9.446869E-2,2.6960243E-2,3.186066E-2,-6.6209316E-2,-4.77663E-2,5.487297E-1,-5.330587E-2,-1.1519393E-1,-6.5204683E-3,-3.9165363E-2,2.6853515E-2,-2.2902299E-4,3.4812382E-1,-1.7489518E-1,6.337374E-2,4.4099855E-1,-3.724045E-2,3.495669E-2,1.3674963E-1,-2.7554119E-2,-1.1657148E-2,3.6264575E-1,-3.231516E-1,-3.8380347E-2,1.0442522E-1,-1.3095021E-1,-6.970331E-3,-2.3033576E-1,-4.6972144E-2,-2.2175707E-2,2.7288976E-1,3.9915122E-2,-6.525311E-2,1.7255913E-2,2.3854308E-2,4.059403E-1,-1.9151649E-1,-1.6941432E-2,-6.862533E-2,3.904999E-2,3.3292923E-2,-6.7463055E-2,1.1887497E-2,3.307349E-1,3.2895637E-1,-1.3690999E-1,-1.0029909E-1,-3.5375826E-2,5.073995E-1,6.3987106E-2,3.3772986E-2,2.1570304E-1,2.9920982E-2,-1.083293E-2],"split_indices":[0,4,4,0,3,5,0,4,5,5,4,4,1,1,4,1,2,0,4,3,2,4,1,5,1,3,5,1,0,1,0,1,3,3,1,0,4,1,5,5,5,3,3,1,1,0,0,2,5,2,4,4,3,1,5,1,0,5,5,5,2,3,5,0,0,0,0,0,0,0,0,0,0,0,0,0,0,0,0,0,0,0,0,0,0,0,0,0,0,0,0,0,0,0,0,0,0,0,0,0,0,0,0,0,0,0,0,0,0,0,0,0,0,0,0,0,0,0,0,0,0,0,0],"split_type":[0,0,0,0,0,0,0,0,0,0,0,0,0,0,0,0,0,0,0,0,0,0,0,0,0,0,0,0,0,0,0,0,0,0,0,0,0,0,0,0,0,0,0,0,0,0,0,0,0,0,0,0,0,0,0,0,0,0,0,0,0,0,0,0,0,0,0,0,0,0,0,0,0,0,0,0,0,0,0,0,0,0,0,0,0,0,0,0,0,0,0,0,0,0,0,0,0,0,0,0,0,0,0,0,0,0,0,0,0,0,0,0,0,0,0,0,0,0,0,0,0,0,0],"sum_hessian":[1.7418445E4,1.0967717E4,6.4507275E3,8.653546E3,2.3141704E3,3.6088496E3,2.841878E3,5.752819E3,2.9007273E3,2.252211E3,6.1959415E1,2.9233108E3,6.85539E2,1.3256952E3,1.5161827E3,4.790644E3,9.621752E2,5.4220905E2,2.358518E3,1.4667897E3,7.854214E2,5.7368713E1,4.5907035E0,8.1159744E1,2.842151E3,6.326064E2,5.2932613E1,1.3004968E3,2.5198387E1,6.574554E2,8.5872736E2,3.7413804E3,1.0492635E3,1.0653547E1,9.515216E2,5.351054E2,7.1036963E0,2.9244492E2,2.0660732E3,1.4505275E3,1.6262184E1,4.4032773E2,3.4509366E2,2.8672836E1,2.8695877E1,2.9430451E0,1.6476585E0,1.1367962E1,6.979179E1,4.5809032E1,2.796342E3,7.37702E1,5.588362E2,3.4366271E0,4.9495987E1,1.079498E3,2.2099884E2,1.8694614E1,6.5037727E0,6.489044E2,8.550941E0,7.331372E1,7.8541364E2,3.6917476E3,4.9632786E1,9.5167854E1,9.540957E2,6.1961823E0,4.457365E0,1.2083907E2,8.3068256E2,4.2928357E2,1.05821815E2,2.7173705E0,4.386326E0,1.7000667E2,1.2243824E2,8.78464E2,1.1876093E3,8.3213324E2,6.183942E2,1.3872634E0,1.4874922E1,4.3033084E2,9.996881E0,1.307074E2,2.1438626E2,1.1256505E1,1.741633E1,9.019257E0,1.967662E1,7.979751E0,3.3882103E0,8.323367E0,6.146842E1,1.8245012E1,2.756402E1,1.2157065E3,1.5806354E3,9.947254E0,6.382295E1,8.529207E1,4.7354413E2,1.3433421E0,2.093285E0,2.1761341E1,2.7734646E1,5.3093136E1,1.0264049E3,8.98241E1,1.3117474E2,5.6812835E0,1.3013331E1,1.367274E0,5.1364985E0,1.7426624E2,4.746382E2,2.6058042E0,5.9451375E0,5.42531E1,1.9060621E1,1.4557294E2,6.398407E2],"tree_param":{"num_deleted":"0","num_feature":"6","num_nodes":"123","size_leaf_vector":"1"}},{"base_weights":[-1.1158186E-2,2.728252E-2,-2.2220306E-2,8.481528E-1,2.5662407E-2,-4.4934805E-2,7.2078966E-3,1.327943E0,6.0368158E-2,-3.7388158E-1,2.8824348E-2,-4.1394365E-1,-4.1854892E-2,2.2626849E-1,9.2441903E-4,4.8686767E-1,1.282786E-1,2.4514325E-1,-1.4814866E-1,-5.418083E-1,-6.8542525E-2,1.5951757E-1,2.2774944E-2,-4.513032E-1,2.479626E-1,-2.1491066E-2,-8.030906E-2,8.156574E-2,4.307134E-1,-7.782035E-2,1.2861598E-2,4.1367766E-2,-6.865857E-1,-2.5878012E-1,2.0437826E-1,7.405367E-1,1.2252425E-1,1.1351504E-2,1.0081929E-1,-2.6721704E-1,-5.696275E-1,-1.21312544E-1,2.410778E-1,8.119594E-3,-8.624662E-2,-7.5496876E-1,-7.697124E-2,1.8034989E-1,-1.5554476E-1,1.8961762E-1,7.483391E-1,-2.841103E-2,-3.811101E-1,1.0224011E-2,4.8564583E-1,-1.1491194E-1,2.4159722E-1,-4.458533E-2,-2.244925E-1,2.72324E-2,-2.754217E-1,2.6755637E-2,2.9403958E-1,9.82184E-2,-9.596931E-4,6.4216214E-3,-2.9314237E-2,3.5212573E-2,-1.3219494E-1,-1.4983086E-1,3.971754E-1,-2.734902E-1,-1.37078E-1,-2.7431375E-3,4.025973E-2,-4.53112E-2,2.9793023E-3,-2.7796558E-1,-4.978829E-3,-3.218027E-2,-1.9874913E-3,7.261341E-2,-1.8912673E-1,-1.0065359E-1,1.3775656E-1,-1.9343574E-1,8.860117E-2,2.8005192E-1,-3.082134E-1,-1.4531899E-2,9.044949E-2,-1.268075E-1,6.2568925E-2,3.8343512E-3,-7.506872E-2,3.9461184E-1,6.9444664E-2],"categories":[],"categories_nodes":[],"categories_segments":[],"categories_sizes":[],"default_left":[0,0,0,0,0,0,0,0,0,0,0,0,0,0,0,0,0,0,0,0,0,0,0,0,0,0,0,0,0,0,0,0,0,0,0,0,0,0,0,0,0,0,0,0,0,0,0,0,0,0,0,0,0,0,0,0,0,0,0,0,0,0,0,0,0,0,0,0,0,0,0,0,0,0,0,0,0,0,0,0,0,0,0,0,0,0,0,0,0,0,0,0,0,0,0,0,0],"id":6,"left_children":[1,3,5,7,9,11,13,15,17,19,21,23,25,27,29,-1,-1,-1,-1,31,33,35,37,39,41,43,45,47,49,51,53,55,57,59,-1,61,63,65,67,69,71,-1,-1,73,75,77,79,81,83,85,87,89,91,93,95,-1,-1,-1,-1,-1,-1,-1,-1,-1,-1,-1,-1,-1,-1,-1,-1,-1,-1,-1,-1,-1,-1,-1,-1,-1,-1,-1,-1,-1,-1,-1,-1,-1,-1,-1,-1,-1,-1,-1,-1,-1,-1],"loss_changes":[7.3813343E0,5.1370187E0,9.010132E0,2.7960658E0,4.902995E0,8.6284075E0,8.083045E0,5.493145E-1,2.0509264E0,1.5255666E0,3.0346954E0,1.6662254E0,5.9068623E0,4.809025E0,5.3681035E0,0E0,0E0,0E0,0E0,1.6763425E0,1.882123E0,3.5598807E0,3.274483E0,1.1514683E0,1.7760755E0,9.462189E0,5.823784E0,2.3027432E0,5.037035E0,1.1254555E1,6.1789346E0,1.8728803E0,4.0987873E-1,2.4486434E0,0E0,1.4682622E0,4.1447344E0,3.5177443E0,4.256049E0,1.0010047E1,9.53702E-1,0E0,0E0,7.37318E0,9.650378E0,1.5993652E0,5.540989E0,3.6048472E0,3.3731837E0,3.7000418E0,1.0442968E1,4.2932262E0,2.668417E0,3.2883372E0,5.4928613E0,0E0,0E0,0E0,0E0,0E0,0E0,0E0,0E0,0E0,0E0,0E0,0E0,0E0,0E0,0E0,0E0,0E0,0E0,0E0,0E0,0E0,0E0,0E0,0E0,0E0,0E0,0E0,0E0,0E0,0E0,0E0,0E0,0E0,0E0,0E0,0E0,0E0,0E0,0E0,0E0,0E0,0E0],"parents":[2147483647,0,0,1,1,2,2,3,3,4,4,5,5,6,6,7,7,8,8,9,9,10,10,11,11,12,12,13,13,14,14,19,19,20,20,21,21,22,22,23,23,24,24,25,25,26,26,27,27,28,28,29,29,30,30,31,31,32,32,33,33,35,35,36,36,37,37,38,38,39,39,40,40,43,43,44,44,45,45,46,46,47,47,48,48,49,49,50,50,51,51,52,52,53,53,54,54],"right_children":[2,4,6,8,10,12,14,16,18,20,22,24,26,28,30,-1,-1,-1,-1,32,34,36,38,40,42,44,46,48,50,52,54,56,58,60,-1,62,64,66,68,70,72,-1,-1,74,76,78,80,82,84,86,88,90,92,94,96,-1,-1,-1,-1,-1,-1,-1,-1,-1,-1,-1,-1,-1,-1,-1,-1,-1,-1,-1,-1,-1,-1,-1,-1,-1,-1,-1,-1,-1,-1,-1,-1,-1,-1,-1,-1,-1,-1,-1,-1,-1,-1],"split_conditions":[7.723212E-1,2.0241296E-6,7.914624E-1,6.649284E-1,6.4002866E-6,2.7396518E-4,1.3942246E-3,7.672909E-1,2.0613232E-1,7.6949334E-1,7.2728914E-1,1.3893333E-3,7.8518146E-1,8.91777E-4,2.8570222E-3,4.8686767E-1,1.282786E-1,2.4514325E-1,-1.4814866E-1,4.642643E-2,6.793408E-1,1.2532939E-4,7.705892E-1,7.791717E-1,7.838538E-1,3.871657E-2,2.0241296E-6,2.6243424E-2,8.880781E-4,7.0004435E-3,2.6243424E-2,3.6918197E-2,7.570591E-1,2.0433071E-1,2.0437826E-1,2.8612316E-2,1.0373656E-2,7.6949334E-1,1.8748255E-1,7.7821463E-1,7.8150594E-1,-1.21312544E-1,2.410778E-1,1.7461048E-2,4.9434837E-2,7.9029006E-1,2.2541324E-2,1.0985398E-3,8.6081797E-1,7.935895E-1,8.4339416E-1,2.1195231E-2,4.0097293E-3,1.5475722E-2,8.111741E-1,-1.1491194E-1,2.4159722E-1,-4.458533E-2,-2.244925E-1,2.72324E-2,-2.754217E-1,2.6755637E-2,2.9403958E-1,9.82184E-2,-9.596931E-4,6.4216214E-3,-2.9314237E-2,3.5212573E-2,-1.3219494E-1,-1.4983086E-1,3.971754E-1,-2.734902E-1,-1.37078E-1,-2.7431375E-3,4.025973E-2,-4.53112E-2,2.9793023E-3,-2.7796558E-1,-4.978829E-3,-3.218027E-2,-1.9874913E-3,7.261341E-2,-1.8912673E-1,-1.0065359E-1,1.3775656E-1,-1.9343574E-1,8.860117E-2,2.8005192E-1,-3.082134E-1,-1.4531899E-2,9.044949E-2,-1.268075E-1,6.2568925E-2,3.8343512E-3,-7.506872E-2,3.9461184E-1,6.9444664E-2],"split_indices":[5,1,5,0,1,4,0,5,4,5,5,3,5,0,4,0,0,0,0,4,3,1,5,5,5,0,1,1,4,2,1,4,5,0,0,3,0,5,2,5,5,0,0,4,4,5,4,4,5,5,5,1,1,1,5,0,0,0,0,0,0,0,0,0,0,0,0,0,0,0,0,0,0,0,0,0,0,0,0,0,0,0,0,0,0,0,0,0,0,0,0,0,0,0,0,0,0],"split_type":[0,0,0,0,0,0,0,0,0,0,0,0,0,0,0,0,0,0,0,0,0,0,0,0,0,0,0,0,0,0,0,0,0,0,0,0,0,0,0,0,0,0,0,0,0,0,0,0,0,0,0,0,0,0,0,0,0,0,0,0,0,0,0,0,0,0,0,0,0,0,0,0,0,0,0,0,0,0,0,0,0,0,0,0,0,0,0,0,0,0,0,0,0,0,0,0,0],"sum_hessian":[1.7355793E4,3.878075E3,1.3477719E4,6.6096544E0,3.8714653E3,7.606233E3,5.871486E3,3.681697E0,2.9279575E0,2.9477148E1,3.841988E3,6.185531E1,7.544378E3,1.6274387E2,5.7087417E3,2.1687188E0,1.5129782E0,1.0371823E0,1.8907751E0,1.8518253E1,1.0958897E1,1.6884476E2,3.6731433E3,5.8851753E1,3.0035553E0,4.9334004E3,2.6109775E3,9.611454E1,6.6629326E1,7.507601E2,4.957982E3,3.8250163E0,1.4693236E1,9.26347E0,1.6954272E0,8.968405E0,1.5987634E2,3.2051477E3,4.6799564E2,2.4301855E1,3.45499E1,1.5067625E0,1.4967928E0,3.3859756E3,1.5474247E3,1.1745386E1,2.599232E3,6.801694E1,2.8097597E1,3.8785748E1,2.7843578E1,6.4652716E2,1.042329E2,4.931491E3,2.6490377E1,2.7795036E0,1.0455127E0,1.8630353E0,1.2830201E1,6.617307E0,2.6461623E0,2.780826E0,6.187578E0,6.0190205E1,9.968614E1,2.9353635E3,2.6978427E2,4.5487076E2,1.3124894E1,2.1805546E1,2.49631E0,6.8062935E0,2.7743605E1,2.9790042E3,4.069715E2,9.2423627E2,6.231885E2,9.323852E0,2.421534E0,1.8164215E3,7.8281055E2,6.3859116E1,4.1578226E0,2.2085993E1,6.011604E0,3.7881727E0,3.4997574E1,2.56438E1,2.1997774E0,6.1032764E2,3.619952E1,9.763148E1,6.601427E0,4.884486E3,4.700555E1,5.232707E0,2.1257671E1],"tree_param":{"num_deleted":"0","num_feature":"6","num_nodes":"97","size_leaf_vector":"1"}},{"base_weights":[-8.017417E-3,5.352659E-3,-3.219728E-2,-1.2290069E-2,4.601735E-2,-9.575631E-2,-1.0167937E-2,1.8416665E-2,-5.5636812E-2,4.8403904E-2,-5.739298E-1,5.991249E-1,-1.00745104E-1,2.0000622E-2,-4.0832125E-2,1.2285883E-3,1.8303916E-1,1.610354E-2,-8.358753E-2,4.0315054E-2,2.5412583E-1,-1.2133781E-1,-9.7588414E-1,1.8983054E-1,5.1244986E-1,-4.7627696E-1,-9.271988E-2,-1.6080687E-2,1.1382948E-1,-1.149987E-1,5.7939393E-3,-2.974827E-2,4.7533028E-2,2.788607E-1,7.3863275E-2,5.6616906E-2,-1.7070353E-1,-3.6822963E-1,-7.412317E-2,7.710053E-2,-7.4589304E-3,1.11848585E-1,4.6417886E-1,-5.7669485E-1,5.7870984E-1,-4.1233906E-1,-3.594625E-1,8.2672375E-1,-3.4377718E-1,3.9596736E-1,-6.308956E-1,-8.6210005E-2,-5.2389026E-1,-1.8881025E-2,7.772674E-1,4.8076235E-2,2.2823846E-1,-4.4356692E-1,-1.0115425E-1,3.4617123E-1,-1.2247013E-2,-1.5351905E-4,-3.184483E-2,1.13971226E-1,9.624598E-3,9.212589E-2,-4.6009637E-2,-2.5213712E-1,3.5576496E-2,1.3265531E-2,2.5556406E-1,3.5724778E-2,-7.689571E-2,-3.4029394E-2,-1.8227416E-1,-4.9569473E-2,-1.5102216E-2,1.8406395E-2,9.723347E-2,-3.483992E-2,8.4145535E-3,8.746692E-2,-1.0393384E-1,1.601077E-1,-2.2309905E-1,-2.4687849E-1,-7.866309E-2,-1.2808502E-2,2.820283E-1,-2.4338044E-1,7.799311E-2,4.561997E-1,5.0848443E-2,7.8120396E-2,-2.3241022E-1,2.1748953E-1,-4.340178E-2,-2.122022E-1,1.6354404E-2,-2.8542154E-2,5.533144E-2,-1.9186167E-1,1.4500545E-1,9.549068E-3,-1.719808E-2,3.3800963E-1,-1.0858414E-1,2.1614118E-2,-6.711683E-2,1.3597202E-1,1.3950181E-2,-3.1601846E-2,-2.4278751E-1,-2.3730172E-2,-7.4698515E-2,6.755765E-2,3.3911857E-1,3.1749217E-3,-3.2416325E-2],"categories":[],"categories_nodes":[],"categories_segments":[],"categories_sizes":[],"default_left":[0,0,0,0,0,0,0,0,0,0,0,0,0,0,0,0,0,0,0,0,0,0,0,0,0,0,0,0,0,0,0,0,0,0,0,0,0,0,0,0,0,0,0,0,0,0,0,0,0,0,0,0,0,0,0,0,0,0,0,0,0,0,0,0,0,0,0,0,0,0,0,0,0,0,0,0,0,0,0,0,0,0,0,0,0,0,0,0,0,0,0,0,0,0,0,0,0,0,0,0,0,0,0,0,0,0,0,0,0,0,0,0,0,0,0,0,0,0,0],"id":7,"left_children":[1,3,5,7,9,11,13,15,17,19,21,23,25,27,29,31,33,35,37,39,41,43,45,47,-1,49,51,53,55,57,59,61,63,65,67,69,71,73,75,77,79,81,83,85,87,89,-1,91,93,95,97,99,101,103,105,107,109,111,113,115,117,-1,-1,-1,-1,-1,-1,-1,-1,-1,-1,-1,-1,-1,-1,-1,-1,-1,-1,-1,-1,-1,-1,-1,-1,-1,-1,-1,-1,-1,-1,-1,-1,-1,-1,-1,-1,-1,-1,-1,-1,-1,-1,-1,-1,-1,-1,-1,-1,-1,-1,-1,-1,-1,-1,-1,-1,-1,-1],"loss_changes":[5.597665E0,8.00014E0,8.63118E0,1.0352721E1,5.0198345E0,5.560849E0,4.2371974E0,1.2882882E1,6.468297E0,5.584377E0,2.24962E0,4.87509E0,4.706208E0,7.8189716E0,7.855299E0,5.916216E0,4.482333E0,6.859402E0,6.2254524E0,5.687554E0,3.7436838E0,2.649526E0,3.5189772E-1,3.5099268E0,0E0,4.665067E0,4.290063E0,3.7216961E0,4.8143854E0,3.9435644E0,8.574086E0,5.520242E0,8.478152E0,2.8393497E0,8.382823E0,7.30332E0,4.0386553E0,4.4708204E0,4.8617163E0,7.0913906E0,5.438948E0,6.4455233E0,4.6763E0,1.6385198E-1,7.9517996E-1,1.132165E0,0E0,1.849663E0,1.7302368E0,1.0909747E0,1.5158386E0,3.6980247E0,2.962142E0,3.2454429E0,2.7535784E0,2.6782408E0,9.540763E0,4.263412E0,2.7276936E0,6.413266E0,2.9021351E0,0E0,0E0,0E0,0E0,0E0,0E0,0E0,0E0,0E0,0E0,0E0,0E0,0E0,0E0,0E0,0E0,0E0,0E0,0E0,0E0,0E0,0E0,0E0,0E0,0E0,0E0,0E0,0E0,0E0,0E0,0E0,0E0,0E0,0E0,0E0,0E0,0E0,0E0,0E0,0E0,0E0,0E0,0E0,0E0,0E0,0E0,0E0,0E0,0E0,0E0,0E0,0E0,0E0,0E0,0E0,0E0,0E0,0E0],"parents":[2147483647,0,0,1,1,2,2,3,3,4,4,5,5,6,6,7,7,8,8,9,9,10,10,11,11,12,12,13,13,14,14,15,15,16,16,17,17,18,18,19,19,20,20,21,21,22,22,23,23,25,25,26,26,27,27,28,28,29,29,30,30,31,31,32,32,33,33,34,34,35,35,36,36,37,37,38,38,39,39,40,40,41,41,42,42,43,43,44,44,45,45,47,47,48,48,49,49,50,50,51,51,52,52,53,53,54,54,55,55,56,56,57,57,58,58,59,59,60,60],"right_children":[2,4,6,8,10,12,14,16,18,20,22,24,26,28,30,32,34,36,38,40,42,44,46,48,-1,50,52,54,56,58,60,62,64,66,68,70,72,74,76,78,80,82,84,86,88,90,-1,92,94,96,98,100,102,104,106,108,110,112,114,116,118,-1,-1,-1,-1,-1,-1,-1,-1,-1,-1,-1,-1,-1,-1,-1,-1,-1,-1,-1,-1,-1,-1,-1,-1,-1,-1,-1,-1,-1,-1,-1,-1,-1,-1,-1,-1,-1,-1,-1,-1,-1,-1,-1,-1,-1,-1,-1,-1,-1,-1,-1,-1,-1,-1,-1,-1,-1,-1],"split_conditions":[3.3309963E-2,9.513106E-3,2.2541324E-2,9.306641E-3,3.5642404E-2,3.1465884E-2,8.366957E-2,6.1490526E-3,7.7639925E-1,3.2174632E-2,3.2174632E-2,1.065981E-3,3.244247E-2,4.8384015E-2,6.3032284E-2,2.7394425E-3,1.3290981E-3,2.0259785E-2,1.9228932E-5,2.1908604E-2,3.1756674E-4,8.1707156E-1,4.4458117E-2,1.6833495E-2,5.1244986E-1,3.9291644E-5,1.11756876E-1,8.8215965E-1,6.8402156E-2,8.560949E-2,9.2585996E-2,4.460618E-3,3.1500682E-3,8.1707156E-1,1.4332474E-3,1.9513069E-2,7.6170176E-1,1.3045452E-5,4.1753748E-3,2.1628506E-2,2.425672E-2,7.944246E-1,8.3847183E-1,3.4999497E-2,3.0485425E-2,3.5803463E-2,-3.594625E-1,7.5422126E-1,6.224153E-5,7.8495914E-1,2.120104E-2,8.193447E-1,7.969663E-1,4.77918E-2,3.325843E-3,1.0766263E-1,7.5591005E-2,4.101976E-2,5.7749227E-2,9.745991E-2,2.6518485E-4,-1.5351905E-4,-3.184483E-2,1.13971226E-1,9.624598E-3,9.212589E-2,-4.6009637E-2,-2.5213712E-1,3.5576496E-2,1.3265531E-2,2.5556406E-1,3.5724778E-2,-7.689571E-2,-3.4029394E-2,-1.8227416E-1,-4.9569473E-2,-1.5102216E-2,1.8406395E-2,9.723347E-2,-3.483992E-2,8.4145535E-3,8.746692E-2,-1.0393384E-1,1.601077E-1,-2.2309905E-1,-2.4687849E-1,-7.866309E-2,-1.2808502E-2,2.820283E-1,-2.4338044E-1,7.799311E-2,4.561997E-1,5.0848443E-2,7.8120396E-2,-2.3241022E-1,2.1748953E-1,-4.340178E-2,-2.122022E-1,1.6354404E-2,-2.8542154E-2,5.533144E-2,-1.9186167E-1,1.4500545E-1,9.549068E-3,-1.719808E-2,3.3800963E-1,-1.0858414E-1,2.1614118E-2,-6.711683E-2,1.3597202E-1,1.3950181E-2,-3.1601846E-2,-2.4278751E-1,-2.3730172E-2,-7.4698515E-2,6.755765E-2,3.3911857E-1,3.1749217E-3,-3.2416325E-2],"split_indices":[3,4,4,0,0,0,2,4,5,3,3,1,0,4,4,4,1,3,1,2,1,5,4,4,0,1,0,5,3,2,2,2,2,5,1,2,5,1,4,3,2,5,5,2,3,2,0,5,1,5,4,5,5,0,1,4,3,4,4,3,1,0,0,0,0,0,0,0,0,0,0,0,0,0,0,0,0,0,0,0,0,0,0,0,0,0,0,0,0,0,0,0,0,0,0,0,0,0,0,0,0,0,0,0,0,0,0,0,0,0,0,0,0,0,0,0,0,0,0],"split_type":[0,0,0,0,0,0,0,0,0,0,0,0,0,0,0,0,0,0,0,0,0,0,0,0,0,0,0,0,0,0,0,0,0,0,0,0,0,0,0,0,0,0,0,0,0,0,0,0,0,0,0,0,0,0,0,0,0,0,0,0,0,0,0,0,0,0,0,0,0,0,0,0,0,0,0,0,0,0,0,0,0,0,0,0,0,0,0,0,0,0,0,0,0,0,0,0,0,0,0,0,0,0,0,0,0,0,0,0,0,0,0,0,0,0,0,0,0,0,0],"sum_hessian":[1.731333E4,1.1149228E4,6.1641035E3,7.7761675E3,3.37306E3,1.5856996E3,4.578404E3,4.552068E3,3.2240994E3,3.3610432E3,1.2016793E1,1.0454227E1,1.5752454E3,2.3080283E3,2.2703755E3,4.122635E3,4.2943292E2,9.0407025E2,2.320029E3,3.2350396E3,1.2600363E2,6.264721E0,5.752073E0,8.491562E0,1.9626656E0,3.1738262E1,1.5435072E3,1.667594E3,6.404344E2,8.7580096E2,1.3945747E3,2.470363E3,1.652272E3,2.278762E2,2.0155673E2,7.435183E2,1.6055194E2,7.343878E1,2.2465903E3,1.8273699E3,1.4076697E3,7.603475E1,4.9968884E1,3.9024906E0,2.36223E0,2.4348686E0,3.317204E0,3.620712E0,4.8708496E0,4.5439153E0,2.7194347E1,1.5217317E3,2.1775406E1,1.6627012E3,4.8927574E0,4.0759894E2,2.3283543E2,3.415544E1,8.416455E2,6.9280304E1,1.3252943E3,1.7873876E3,6.8297546E2,7.2349815E1,1.5799221E3,2.1417921E2,1.3696991E1,8.569877E0,1.9298686E2,7.331439E2,1.0374404E1,3.652692E1,1.24025024E2,3.6285442E1,3.715334E1,4.638139E2,1.7827765E3,1.719037E3,1.0833279E2,3.461061E2,1.0615636E3,5.4879192E1,2.1155558E1,4.777736E1,2.191527E0,1.2819802E0,2.6205106E0,1.192893E0,1.169337E0,1.3984188E0,1.0364498E0,1.122138E0,2.4985743E0,2.192524E0,2.678326E0,2.612924E0,1.9309912E0,2.4436863E1,2.7574837E0,1.4737512E3,4.798049E1,1.9860176E1,1.9152298E0,7.1705597E2,9.4564526E2,3.7526827E0,1.1400745E0,3.752402E2,3.2358707E1,1.0336718E2,1.2946825E2,1.8413969E1,1.5741472E1,7.337289E2,1.07916626E2,6.113622E1,8.144086E0,1.0709788E3,2.5431557E2],"tree_param":{"num_deleted":"0","num_feature":"6","num_nodes":"119","size_leaf_vector":"1"}},{"base_weights":[-5.9125875E-3,1.2229153E-2,-1.771671E-2,-6.037723E-2,2.5245914E-2,-6.76388E-2,-6.312708E-3,-9.9059194E-2,3.758771E-2,1.8089601E-1,1.5731456E-2,-4.7653437E-2,-2.1875624E-1,2.9443895E-2,-2.0327074E-2,-1.813417E-1,-8.301313E-4,3.6569354E-1,-2.0943705E-3,1.9496624E-1,-6.368654E-1,1.0421445E-2,2.2493279E-1,2.867633E-1,-5.4414257E-2,-4.6929717E-4,-4.4211555E-1,-4.4168793E-2,5.5110123E-2,-3.7132952E-2,2.031724E-2,-3.46106E-1,-7.583479E-2,8.436916E-2,-1.7795943E-1,-2.6789424E-1,6.072087E-1,6.101812E-1,-2.8452057E-2,1.4960282E-1,4.6108866E-1,-3.6255756E-1,1.5548514E-1,-1.6096983E-2,4.132793E-2,-5.07762E-1,2.8567308E-1,-7.397475E-2,7.0079166E-1,6.3799787E-1,-5.9193093E-2,4.2268565E-1,-1.1843767E-1,-1.1851011E-1,-5.646712E-1,9.7006625E-1,-5.9651237E-2,2.4687488E-1,3.2378033E-2,-2.7036631E-2,-1.2333199E-1,1.157259E-1,-1.0318149E-2,1.3386974E-2,-1.2791292E-1,1.1457642E-1,-4.316774E-2,-6.816384E-2,6.0170267E-2,-6.1679848E-2,2.9983068E-1,-2.7398303E-1,1.5810323E-1,2.9398912E-1,1.5577338E-2,1.2975431E-2,5.0851655E-1,1.0895538E-2,-9.385336E-2,3.5719972E-2,2.38332E-1,2.4291393E-1,4.025287E-2,-4.9385488E-2,-9.1275305E-4,1.4473186E-1,1.0219649E-2,7.627525E-2,-2.8659838E-1,1.889689E-1,6.418985E-2,-1.9894998E-1,7.756944E-2,-1.0384724E-1,3.180133E-1,3.859091E-1,-2.427947E-2,-1.4586301E-1,-1.4359747E-2,7.874763E-2,4.1196218E-1,-6.1562672E-2,1.2727618E-1,-8.1070065E-2,4.3050766E-1,-5.7791084E-2,-1.8800545E-1,-1.9672279E-1,3.7506124E-1,-3.4064204E-2,1.5309533E-2,-9.20509E-2,9.365293E-2,-6.233446E-2,1.3872697E-2,-3.5880415E-3,-3.177102E-2,-1.4009143E-1,-2.954046E-2,7.81717E-2,1.3588117E-2,-2.370391E-1,-2.4261374E-3],"categories":[],"categories_nodes":[],"categories_segments":[],"categories_sizes":[],"default_left":[0,0,0,0,0,0,0,0,0,0,0,0,0,0,0,0,0,0,0,0,0,0,0,0,0,0,0,0,0,0,0,0,0,0,0,0,0,0,0,0,0,0,0,0,0,0,0,0,0,0,0,0,0,0,0,0,0,0,0,0,0,0,0,0,0,0,0,0,0,0,0,0,0,0,0,0,0,0,0,0,0,0,0,0,0,0,0,0,0,0,0,0,0,0,0,0,0,0,0,0,0,0,0,0,0,0,0,0,0,0,0,0,0,0,0,0,0,0,0,0,0,0,0],"id":8,"left_children":[1,3,5,7,9,11,13,15,17,19,21,23,25,27,29,31,33,35,37,39,41,43,45,47,49,51,53,55,57,59,61,63,65,67,69,71,73,75,77,79,81,-1,-1,83,85,87,89,91,93,95,97,99,101,103,105,107,109,111,113,115,117,119,121,-1,-1,-1,-1,-1,-1,-1,-1,-1,-1,-1,-1,-1,-1,-1,-1,-1,-1,-1,-1,-1,-1,-1,-1,-1,-1,-1,-1,-1,-1,-1,-1,-1,-1,-1,-1,-1,-1,-1,-1,-1,-1,-1,-1,-1,-1,-1,-1,-1,-1,-1,-1,-1,-1,-1,-1,-1,-1,-1,-1],"loss_changes":[3.6997662E0,6.4380054E0,5.958188E0,3.9282331E0,8.550596E0,5.867322E0,4.270606E0,6.0030866E0,3.8272145E0,3.9513378E0,6.045315E0,3.9047308E0,1.1069561E1,4.53647E0,4.1827354E0,6.999814E0,5.1395383E0,5.0157056E0,4.2645555E0,3.8878222E0,4.496413E0,4.3530245E0,6.1404233E0,5.166692E0,5.619583E0,5.8319683E0,4.383543E0,9.808701E0,7.7505946E0,3.76657E0,5.2379055E0,4.958805E0,7.770987E0,8.371399E0,3.804993E0,5.327625E0,4.765274E0,6.634639E0,4.676669E0,5.4485464E0,5.276805E0,0E0,0E0,5.5423617E0,7.8405395E0,3.8829165E0,2.9516592E0,3.9343631E0,6.4001803E0,5.5333953E0,8.0846405E0,3.5177474E0,4.3890314E0,7.951708E0,1.7509518E0,5.0985203E0,3.6599827E0,6.9105673E0,5.311537E0,4.6108437E0,3.8321667E0,4.431533E0,2.3546383E0,0E0,0E0,0E0,0E0,0E0,0E0,0E0,0E0,0E0,0E0,0E0,0E0,0E0,0E0,0E0,0E0,0E0,0E0,0E0,0E0,0E0,0E0,0E0,0E0,0E0,0E0,0E0,0E0,0E0,0E0,0E0,0E0,0E0,0E0,0E0,0E0,0E0,0E0,0E0,0E0,0E0,0E0,0E0,0E0,0E0,0E0,0E0,0E0,0E0,0E0,0E0,0E0,0E0,0E0,0E0,0E0,0E0,0E0,0E0,0E0],"parents":[2147483647,0,0,1,1,2,2,3,3,4,4,5,5,6,6,7,7,8,8,9,9,10,10,11,11,12,12,13,13,14,14,15,15,16,16,17,17,18,18,19,19,20,20,21,21,22,22,23,23,24,24,25,25,26,26,27,27,28,28,29,29,30,30,31,31,32,32,33,33,34,34,35,35,36,36,37,37,38,38,39,39,40,40,43,43,44,44,45,45,46,46,47,47,48,48,49,49,50,50,51,51,52,52,53,53,54,54,55,55,56,56,57,57,58,58,59,59,60,60,61,61,62,62],"right_children":[2,4,6,8,10,12,14,16,18,20,22,24,26,28,30,32,34,36,38,40,42,44,46,48,50,52,54,56,58,60,62,64,66,68,70,72,74,76,78,80,82,-1,-1,84,86,88,90,92,94,96,98,100,102,104,106,108,110,112,114,116,118,120,122,-1,-1,-1,-1,-1,-1,-1,-1,-1,-1,-1,-1,-1,-1,-1,-1,-1,-1,-1,-1,-1,-1,-1,-1,-1,-1,-1,-1,-1,-1,-1,-1,-1,-1,-1,-1,-1,-1,-1,-1,-1,-1,-1,-1,-1,-1,-1,-1,-1,-1,-1,-1,-1,-1,-1,-1,-1,-1,-1,-1],"split_conditions":[1.39416875E-2,1.3096444E-3,1.0199712E-2,7.9380035E-1,2.8952472E-3,1.7427367E-3,3.0977517E-2,4.2233113E-3,7.886579E-4,8.6081797E-1,1.3636537E-2,7.4799055E-1,7.872927E-1,1.8244753E-2,6.1134804E-2,1.5374293E-3,1.9082063E-3,3.3488203E-4,7.944246E-1,2.7720397E-3,1.7087588E-3,4.6028392E-3,3.0451787E-3,4.3658007E-4,1.35753555E-2,5.1239077E-3,5.882538E-3,2.6249178E-5,1.9770935E-2,1.10476516E-1,9.2585996E-2,7.637308E-1,1.9082063E-3,2.7396518E-4,4.931466E-3,7.9937756E-1,8.009854E-1,8.733906E-3,2.9363083E-3,8.297875E-1,2.9363083E-3,-3.6255756E-1,1.5548514E-1,1.08186105E-4,4.049979E-3,3.911133E-4,1.08186105E-4,7.312604E-3,1.497551E-2,7.1201525E-3,1.39148105E-2,7.137592E-3,7.846719E-1,2.7610598E-2,1.5326061E-2,1.407712E-2,7.91828E-1,1.8209932E-2,2.8719465E-5,5.5610045E-4,4.358239E-6,1.2819686E-4,8.900564E-2,1.3386974E-2,-1.2791292E-1,1.1457642E-1,-4.316774E-2,-6.816384E-2,6.0170267E-2,-6.1679848E-2,2.9983068E-1,-2.7398303E-1,1.5810323E-1,2.9398912E-1,1.5577338E-2,1.2975431E-2,5.0851655E-1,1.0895538E-2,-9.385336E-2,3.5719972E-2,2.38332E-1,2.4291393E-1,4.025287E-2,-4.9385488E-2,-9.1275305E-4,1.4473186E-1,1.0219649E-2,7.627525E-2,-2.8659838E-1,1.889689E-1,6.418985E-2,-1.9894998E-1,7.756944E-2,-1.0384724E-1,3.180133E-1,3.859091E-1,-2.427947E-2,-1.4586301E-1,-1.4359747E-2,7.874763E-2,4.1196218E-1,-6.1562672E-2,1.2727618E-1,-8.1070065E-2,4.3050766E-1,-5.7791084E-2,-1.8800545E-1,-1.9672279E-1,3.7506124E-1,-3.4064204E-2,1.5309533E-2,-9.20509E-2,9.365293E-2,-6.233446E-2,1.3872697E-2,-3.5880415E-3,-3.177102E-2,-1.4009143E-1,-2.954046E-2,7.81717E-2,1.3588117E-2,-2.370391E-1,-2.4261374E-3],"split_indices":[2,4,4,5,0,1,0,1,1,5,2,5,5,0,4,2,3,1,5,0,3,4,4,1,0,4,4,1,2,2,2,5,3,4,3,5,5,1,3,5,3,0,0,1,2,1,1,4,3,4,0,1,5,0,2,0,5,2,1,1,1,1,0,0,0,0,0,0,0,0,0,0,0,0,0,0,0,0,0,0,0,0,0,0,0,0,0,0,0,0,0,0,0,0,0,0,0,0,0,0,0,0,0,0,0,0,0,0,0,0,0,0,0,0,0,0,0,0,0,0,0,0,0],"split_type":[0,0,0,0,0,0,0,0,0,0,0,0,0,0,0,0,0,0,0,0,0,0,0,0,0,0,0,0,0,0,0,0,0,0,0,0,0,0,0,0,0,0,0,0,0,0,0,0,0,0,0,0,0,0,0,0,0,0,0,0,0,0,0,0,0,0,0,0,0,0,0,0,0,0,0,0,0,0,0,0,0,0,0,0,0,0,0,0,0,0,0,0,0,0,0,0,0,0,0,0,0,0,0,0,0,0,0,0,0,0,0,0,0,0,0,0,0,0,0,0,0,0,0],"sum_hessian":[1.7274723E4,6.8093716E3,1.0465351E4,1.0346339E3,5.774738E3,1.9451858E3,8.520164E3,7.41742E2,2.9289185E2,3.3162146E2,5.443116E3,1.7191436E3,2.2604227E2,2.3987734E3,6.121391E3,4.0317368E2,3.3856833E2,3.0714836E1,2.62177E2,3.267609E2,4.8605905E0,5.3094014E3,1.3371501E2,3.3246082E1,1.6858975E3,1.14826E2,1.1121627E2,6.1996E2,1.7788134E3,4.3307646E3,1.7906265E3,1.5649838E2,2.466753E2,2.2896144E2,1.09606895E2,8.446687E0,2.226815E1,9.9064E0,2.5227061E2,2.805075E2,4.625337E1,3.2205827E0,1.6400079E0,2.8578145E3,2.451587E3,9.67296E0,1.24042046E2,1.8205326E1,1.5040757E1,1.0647601E1,1.6752499E3,2.4469688E1,9.035631E1,3.1090233E1,8.0126045E1,8.394451E0,6.115656E2,1.874713E2,1.591342E3,3.8778708E3,4.5289362E2,4.3454214E2,1.3560842E3,2.6747013E1,1.2975136E2,3.1331018E1,2.1534428E2,6.1933506E1,1.6702794E2,1.0789927E2,1.7076226E0,4.579601E0,3.8670862E0,1.2866346E1,9.401803E0,7.1893044E0,2.7170947E0,2.0618433E2,4.6086285E1,2.6895578E2,1.1551746E1,2.1668694E1,2.4584675E1,2.2995836E2,2.627856E3,3.8649246E1,2.4129375E3,3.7389896E0,5.933971E0,2.0042994E1,1.03999054E2,6.209362E0,1.1995964E1,3.8518844E0,1.1188873E1,5.1835475E0,5.4640536E0,4.220685E1,1.6330431E3,2.2032633E1,2.437054E0,7.843687E1,1.1919442E1,2.907657E1,2.0136616E0,1.2034502E1,6.809154E1,1.0367546E0,7.357697E0,4.1127368E2,2.0029192E2,1.9386719E1,1.6808458E2,8.608999E1,1.5052521E3,3.256497E3,6.213737E2,2.9358065E1,4.2353555E2,1.4128485E2,2.9325726E2,2.8611693E0,1.3532231E3],"tree_param":{"num_deleted":"0","num_feature":"6","num_nodes":"123","size_leaf_vector":"1"}},{"base_weights":[-4.379396E-3,1.1220882E-2,-1.3027282E-2,2.8842054E-3,1.02072835E-1,-3.4346804E-2,6.0333908E-3,7.305888E-3,-3.7393233E-1,5.0109714E-2,3.8300803E-1,-6.979089E-2,-1.9484732E-2,2.0003591E-1,3.1546967E-3,3.7665584E-3,1.5497398E-1,-7.1705425E-1,-2.9301062E-1,1.5539664E-1,-1.5802401E-1,5.962095E-1,-3.101042E-2,-1.9372617E-1,-3.4432177E-2,1.6672011E-2,-4.78201E-2,2.8731996E-1,-8.854458E-1,-1.19936965E-1,9.078052E-3,7.5302445E-3,-1.5064016E-1,-2.4033731E-1,2.3034646E-1,4.8342388E-2,-9.067095E-1,-4.0325797E-1,6.490097E-1,1.0879362E-1,7.184647E-1,-8.550204E-2,-5.575854E-1,3.951062E-1,9.3783593E-1,-4.2243928E-1,2.7766734E-1,3.4484786E-1,-2.0157233E-1,-8.309486E-2,5.80062E-2,-3.7656188E-2,9.429677E-2,-2.218943E-2,-1.2560956E-1,3.8960207E-1,-4.2547435E-1,-8.055893E-2,-3.2801285E-1,-6.426104E-2,-3.603462E-1,1.4716521E-1,5.0967583E-3,3.2558113E-3,-3.487913E-2,-2.4694861E-1,-2.744191E-2,-2.3067416E-1,7.1587816E-2,3.4010562E-1,4.6485376E-2,-1.1007176E-1,-3.1119132E-1,1.2017282E-1,-1.4659591E-1,-2.2158888E-1,3.3912045E-1,8.2674794E-2,-4.7781624E-4,3.7926304E-1,1.613631E-1,3.7396867E-2,-8.5757956E-2,-2.3173492E-1,9.796034E-2,3.9987102E-1,7.757333E-2,1.2553509E-1,4.6137065E-1,-2.1683428E-1,2.8161215E-2,2.0219176E-1,-1.5334326E-1,-5.611321E-2,-2.8475994E-1,-8.253916E-2,-1.6047675E-2,1.2903598E-1,-1.0740565E-3,1.8169399E-1,-1.61231E-2,-7.8275345E-2,3.884005E-2,-3.527683E-2,5.8654416E-4,-1.061293E-1,-2.0760704E-2,-2.0476412E-2,1.7701076E-1,-2.5835696E-1,6.349237E-3,2.3239318E-2,-5.8073364E-2,1.753701E-1,-1.395712E-1,1.1204736E-2,1.0042979E-1,-5.242271E-2,2.6025954E-3],"categories":[],"categories_nodes":[],"categories_segments":[],"categories_sizes":[],"default_left":[0,0,0,0,0,0,0,0,0,0,0,0,0,0,0,0,0,0,0,0,0,0,0,0,0,0,0,0,0,0,0,0,0,0,0,0,0,0,0,0,0,0,0,0,0,0,0,0,0,0,0,0,0,0,0,0,0,0,0,0,0,0,0,0,0,0,0,0,0,0,0,0,0,0,0,0,0,0,0,0,0,0,0,0,0,0,0,0,0,0,0,0,0,0,0,0,0,0,0,0,0,0,0,0,0,0,0,0,0,0,0,0,0,0,0,0,0,0,0],"id":9,"left_children":[1,3,5,7,9,11,13,15,17,19,21,23,25,27,29,31,33,35,37,39,41,43,45,47,49,51,53,55,57,59,61,63,65,67,69,-1,71,73,75,77,79,81,83,85,87,89,91,-1,93,95,97,99,101,103,105,107,109,-1,-1,111,113,115,117,-1,-1,-1,-1,-1,-1,-1,-1,-1,-1,-1,-1,-1,-1,-1,-1,-1,-1,-1,-1,-1,-1,-1,-1,-1,-1,-1,-1,-1,-1,-1,-1,-1,-1,-1,-1,-1,-1,-1,-1,-1,-1,-1,-1,-1,-1,-1,-1,-1,-1,-1,-1,-1,-1,-1,-1],"loss_changes":[2.3266401E0,4.65831E0,4.5088606E0,9.391268E0,7.5271525E0,2.757543E0,3.2713149E0,2.9107904E0,1.6050453E0,9.609522E0,7.1276417E0,6.772152E0,3.782761E0,8.36907E0,4.2110605E0,3.1631594E0,3.9396122E0,2.1088476E0,5.9310393E0,7.556968E0,4.2243776E0,3.2852516E0,3.5399282E0,3.848218E0,5.4241467E0,6.8465347E0,4.1240463E0,6.0002847E0,5.554981E-1,3.5261555E0,3.028408E0,2.1863244E0,5.0784187E0,5.592429E0,7.316034E0,0E0,3.1324673E-1,3.5926409E0,4.91144E0,4.969682E0,1.4944124E0,5.3395004E0,4.520215E0,4.1651444E0,5.2747784E0,2.0660794E0,5.48413E0,0E0,3.5372868E0,4.4743605E0,9.536926E0,9.918754E0,8.38357E0,3.589107E0,6.5744486E0,6.510729E0,2.0655942E0,0E0,0E0,3.9833531E0,5.1924996E0,3.1678154E0,3.4487946E0,0E0,0E0,0E0,0E0,0E0,0E0,0E0,0E0,0E0,0E0,0E0,0E0,0E0,0E0,0E0,0E0,0E0,0E0,0E0,0E0,0E0,0E0,0E0,0E0,0E0,0E0,0E0,0E0,0E0,0E0,0E0,0E0,0E0,0E0,0E0,0E0,0E0,0E0,0E0,0E0,0E0,0E0,0E0,0E0,0E0,0E0,0E0,0E0,0E0,0E0,0E0,0E0,0E0,0E0,0E0,0E0],"parents":[2147483647,0,0,1,1,2,2,3,3,4,4,5,5,6,6,7,7,8,8,9,9,10,10,11,11,12,12,13,13,14,14,15,15,16,16,17,17,18,18,19,19,20,20,21,21,22,22,23,23,24,24,25,25,26,26,27,27,28,28,29,29,30,30,31,31,32,32,33,33,34,34,36,36,37,37,38,38,39,39,40,40,41,41,42,42,43,43,44,44,45,45,46,46,48,48,49,49,50,50,51,51,52,52,53,53,54,54,55,55,56,56,59,59,60,60,61,61,62,62],"right_children":[2,4,6,8,10,12,14,16,18,20,22,24,26,28,30,32,34,36,38,40,42,44,46,48,50,52,54,56,58,60,62,64,66,68,70,-1,72,74,76,78,80,82,84,86,88,90,92,-1,94,96,98,100,102,104,106,108,110,-1,-1,112,114,116,118,-1,-1,-1,-1,-1,-1,-1,-1,-1,-1,-1,-1,-1,-1,-1,-1,-1,-1,-1,-1,-1,-1,-1,-1,-1,-1,-1,-1,-1,-1,-1,-1,-1,-1,-1,-1,-1,-1,-1,-1,-1,-1,-1,-1,-1,-1,-1,-1,-1,-1,-1,-1,-1,-1,-1,-1],"split_conditions":[7.7902955E-1,7.7768916E-1,7.914624E-1,7.7751625E-1,1.6475201E-3,9.5970856E-5,8.34916E-6,7.771601E-1,2.8570222E-3,3.1756674E-4,5.6900764E-3,7.81803E-1,4.1339963E-4,8.132981E-1,2.7408469E-5,7.767785E-1,4.2151347E-5,6.4747786E-4,1.6949979E-3,2.5929642E-4,2.5471399E-2,3.4860591E-3,1.5678444E-3,3.4891274E-3,7.207448E-2,2.2415098E-4,7.8819364E-1,7.844171E-1,1.816477E-1,2.3831451E-5,1.3046105E-3,1.9650237E-1,1.2374214E-3,7.773405E-1,6.224153E-5,4.8342388E-2,2.7905632E-4,8.290791E-3,3.840158E-3,5.55677E-5,3.9057867E-3,7.7837294E-1,1.4214696E-1,1.6949979E-3,5.426786E-3,1.35962665E-2,3.840158E-3,3.4484786E-1,9.36672E-5,1.9228932E-5,8.8057354E-2,4.1332077E-3,2.3879153E-3,6.005793E-4,7.8881E-1,1.2874539E-1,7.9671735E-1,-8.055893E-2,-3.2801285E-1,4.73624E-2,5.971336E-3,8.91777E-4,9.5856126E-4,3.2558113E-3,-3.487913E-2,-2.4694861E-1,-2.744191E-2,-2.3067416E-1,7.1587816E-2,3.4010562E-1,4.6485376E-2,-1.1007176E-1,-3.1119132E-1,1.2017282E-1,-1.4659591E-1,-2.2158888E-1,3.3912045E-1,8.2674794E-2,-4.7781624E-4,3.7926304E-1,1.613631E-1,3.7396867E-2,-8.5757956E-2,-2.3173492E-1,9.796034E-2,3.9987102E-1,7.757333E-2,1.2553509E-1,4.6137065E-1,-2.1683428E-1,2.8161215E-2,2.0219176E-1,-1.5334326E-1,-5.611321E-2,-2.8475994E-1,-8.253916E-2,-1.6047675E-2,1.2903598E-1,-1.0740565E-3,1.8169399E-1,-1.61231E-2,-7.8275345E-2,3.884005E-2,-3.527683E-2,5.8654416E-4,-1.061293E-1,-2.0760704E-2,-2.0476412E-2,1.7701076E-1,-2.5835696E-1,6.349237E-3,2.3239318E-2,-5.8073364E-2,1.753701E-1,-1.395712E-1,1.1204736E-2,1.0042979E-1,-5.242271E-2,2.6025954E-3],"split_indices":[5,5,5,5,1,1,1,5,4,1,1,5,1,5,1,5,1,4,1,1,4,1,4,0,0,1,5,3,4,1,3,2,4,5,1,0,1,3,4,1,4,5,0,1,3,1,4,0,1,1,2,2,4,1,5,2,5,0,0,4,4,0,4,0,0,0,0,0,0,0,0,0,0,0,0,0,0,0,0,0,0,0,0,0,0,0,0,0,0,0,0,0,0,0,0,0,0,0,0,0,0,0,0,0,0,0,0,0,0,0,0,0,0,0,0,0,0,0,0],"split_type":[0,0,0,0,0,0,0,0,0,0,0,0,0,0,0,0,0,0,0,0,0,0,0,0,0,0,0,0,0,0,0,0,0,0,0,0,0,0,0,0,0,0,0,0,0,0,0,0,0,0,0,0,0,0,0,0,0,0,0,0,0,0,0,0,0,0,0,0,0,0,0,0,0,0,0,0,0,0,0,0,0,0,0,0,0,0,0,0,0,0,0,0,0,0,0,0,0,0,0,0,0,0,0,0,0,0,0,0,0,0,0,0,0,0,0,0,0,0,0],"sum_hessian":[1.7243855E4,6.149758E3,1.1094098E4,5.6338237E3,5.1593414E2,5.236371E3,5.8577266E3,5.5694507E3,6.437306E1,4.3639484E2,7.9539314E1,1.5459022E3,3.690469E3,8.464721E1,5.7730796E3,5.4400874E3,1.2936328E2,1.0784374E1,5.3588684E1,2.8996564E2,1.464292E2,5.2212234E1,2.7327084E1,3.4215192E2,1.2037504E3,1.6216317E3,2.0688372E3,7.9027855E1,5.6193566E0,2.6417072E2,5.5089087E3,5.3115684E3,1.2851901E2,2.036498E1,1.089983E2,1.942057E0,8.842318E0,4.8486137E1,5.1025496E0,2.689028E2,2.1062855E1,1.2496208E2,2.1467117E1,3.4222946E1,1.7989286E1,1.1886049E1,1.5441034E1,1.1420089E0,3.410099E2,7.886693E2,4.15081E2,9.5426996E2,6.673618E2,1.5570829E3,5.117543E2,6.950734E1,9.52051E0,1.9941837E0,3.6251729E0,2.1552498E2,4.8645725E1,1.5337254E2,5.355536E3,5.173628E3,1.3794067E2,9.348381E0,1.1917064E2,9.393304E0,1.0971677E1,7.3152237E0,1.01683075E2,2.464597E0,6.377721E0,4.3018117E0,4.4184326E1,1.1765922E0,3.9259572E0,1.0649575E2,1.6240704E2,3.7449346E0,1.731792E1,6.117381E1,6.3788273E1,1.7371656E1,4.0954604E0,3.235546E0,3.09874E1,1.0552735E1,7.4365516E0,7.261866E0,4.6241827E0,1.0374426E1,5.066609E0,3.3573587E2,5.2740197E0,1.0422901E2,6.844403E2,5.8092693E1,3.569883E2,2.238771E1,9.3188226E2,5.9544888E1,6.078169E2,3.1370447E2,1.2433785E3,1.003974E2,4.113569E2,2.1364122E1,4.814322E1,4.3493595E0,5.17115E0,1.0302032E2,1.1250467E2,4.403516E0,4.424221E1,9.749869E1,5.587385E1,1.0355567E2,5.2519805E3],"tree_param":{"num_deleted":"0","num_feature":"6","num_nodes":"119","size_leaf_vector":"1"}},{"base_weights":[-3.3760176E-3,6.4600155E-2,-5.050974E-3,5.3179336E-1,4.6713043E-2,-5.9694197E-2,-2.7870333E-3,-2.3225981E-1,8.02038E-1,-6.0199046E-1,6.348651E-2,-2.7371708E-2,-1.8664013E-1,-4.126699E-3,1.6642487E-1,9.6631154E-2,-1.7655313E-1,8.8973624E-1,3.289944E-1,9.201493E-2,-9.3402874E-1,5.676029E-1,4.6319187E-2,-7.742935E-2,8.797112E-2,-1.5119281E-1,-9.122179E-1,-2.8907866E-3,-1.2568304E-1,2.4921599E-1,-1.9725125E-1,1.616508E-1,-1.1692602E-1,3.7414104E-1,6.242302E-1,1.4666185E-1,5.8165407E-3,-8.678362E-2,1.8012786E-1,-3.6921507E-1,4.3558873E-2,9.1033004E-2,4.3334436E-1,1.077209E-1,-8.830904E-2,-2.5359806E-1,-3.2501265E-2,1.6833182E-1,-2.3948894E-1,5.1749396E-1,-2.0406894E-1,-3.0914545E-1,-5.2734155E-2,9.729073E-2,-5.471145E-3,-5.3434616E-1,-8.73696E-2,1.7891462E-1,1.0152203E0,-4.1794053E-1,4.369049E-1,-5.8105137E-2,3.1804383E-1,-1.378181E-1,1.6874853E-1,4.4528423E-3,8.782855E-2,-3.2492284E-2,1.6341612E-1,-1.0486886E-1,2.2378415E-1,-3.1269826E-2,3.0967796E-2,-2.6726717E-1,5.6351688E-2,-1.9496632E-1,-3.6544174E-2,-6.176353E-2,2.507778E-1,-1.0770984E-1,-2.3007436E-2,2.3317832E-2,1.9023837E-1,-2.218757E-3,2.9974261E-2,-2.5109646E-1,7.900634E-2,2.1034855E-2,-7.286627E-2,7.0312366E-2,-1.3712524E-1,1.4744367E-2,4.284794E-1,-2.4393044E-1,-3.117296E-2,3.105109E-1,-2.1673204E-2],"categories":[],"categories_nodes":[],"categories_segments":[],"categories_sizes":[],"default_left":[0,0,0,0,0,0,0,0,0,0,0,0,0,0,0,0,0,0,0,0,0,0,0,0,0,0,0,0,0,0,0,0,0,0,0,0,0,0,0,0,0,0,0,0,0,0,0,0,0,0,0,0,0,0,0,0,0,0,0,0,0,0,0,0,0,0,0,0,0,0,0,0,0,0,0,0,0,0,0,0,0,0,0,0,0,0,0,0,0,0,0,0,0,0,0,0,0],"id":10,"left_children":[1,3,5,7,9,11,13,15,17,19,21,23,25,27,29,31,-1,33,35,37,39,41,43,45,47,49,51,53,55,57,59,-1,-1,-1,61,-1,-1,-1,-1,-1,-1,63,-1,65,67,69,71,73,75,77,79,-1,-1,81,83,85,87,89,91,93,95,-1,-1,-1,-1,-1,-1,-1,-1,-1,-1,-1,-1,-1,-1,-1,-1,-1,-1,-1,-1,-1,-1,-1,-1,-1,-1,-1,-1,-1,-1,-1,-1,-1,-1,-1,-1],"loss_changes":[1.9617071E0,3.4376588E0,2.0797963E0,3.3211136E0,4.3923E0,2.7392707E0,3.6606705E0,6.1251074E-1,1.8186569E-1,2.4321003E0,3.3573172E0,3.0915918E0,3.348765E0,2.4063187E0,3.868371E0,9.251147E-1,0E0,8.160114E-2,1.5762493E-1,9.888687E-1,2.4124417E0,5.2121005E0,3.1440163E0,2.944893E0,4.3076253E0,4.7179513E0,3.5151386E-1,4.100267E0,2.4775114E0,5.40626E0,3.5526228E0,0E0,0E0,0E0,2.7733998E0,0E0,0E0,0E0,0E0,0E0,0E0,2.685233E0,0E0,4.478953E0,1.5695561E0,7.519197E0,2.9163349E0,2.869911E0,1.4839499E0,2.4391758E0,2.3728456E0,0E0,0E0,4.1339083E0,3.137029E0,3.5093591E0,3.656327E0,3.5023422E0,3.3250742E0,2.1956494E0,2.11684E0,0E0,0E0,0E0,0E0,0E0,0E0,0E0,0E0,0E0,0E0,0E0,0E0,0E0,0E0,0E0,0E0,0E0,0E0,0E0,0E0,0E0,0E0,0E0,0E0,0E0,0E0,0E0,0E0,0E0,0E0,0E0,0E0,0E0,0E0,0E0,0E0],"parents":[2147483647,0,0,1,1,2,2,3,3,4,4,5,5,6,6,7,7,8,8,9,9,10,10,11,11,12,12,13,13,14,14,15,15,17,17,18,18,19,19,20,20,21,21,22,22,23,23,24,24,25,25,26,26,27,27,28,28,29,29,30,30,34,34,41,41,43,43,44,44,45,45,46,46,47,47,48,48,49,49,50,50,53,53,54,54,55,55,56,56,57,57,58,58,59,59,60,60],"right_children":[2,4,6,8,10,12,14,16,18,20,22,24,26,28,30,32,-1,34,36,38,40,42,44,46,48,50,52,54,56,58,60,-1,-1,-1,62,-1,-1,-1,-1,-1,-1,64,-1,66,68,70,72,74,76,78,80,-1,-1,82,84,86,88,90,92,94,96,-1,-1,-1,-1,-1,-1,-1,-1,-1,-1,-1,-1,-1,-1,-1,-1,-1,-1,-1,-1,-1,-1,-1,-1,-1,-1,-1,-1,-1,-1,-1,-1,-1,-1,-1,-1],"split_conditions":[7.4095035E-1,8.880781E-4,9.5856126E-4,2.0999488E-4,1.4443174E-3,8.032627E-4,2.1195231E-2,6.005894E-3,7.377779E-1,1.3942246E-3,2.9363083E-3,7.935895E-1,4.644669E-3,1.35962665E-2,6.783304E-3,7.377779E-1,-1.7655313E-1,3.1922893E-3,6.005894E-3,1.0985398E-3,3.0088539E-3,2.1666826E-3,1.6949979E-3,1.1174944E-3,2.6243424E-2,3.694314E-4,1.9051346E-3,2.8952472E-3,1.531978E-3,5.426786E-3,1.1319615E-2,1.616508E-1,-1.1692602E-1,3.7414104E-1,1.7909177E-2,1.4666185E-1,5.8165407E-3,-8.678362E-2,1.8012786E-1,-3.6921507E-1,4.3558873E-2,1.35962665E-2,4.3334436E-1,6.3538196E-4,8.900564E-2,3.0088539E-3,5.5092457E-4,3.4931433E-4,1.7413116E-4,2.5020554E-3,3.6571354E-3,-3.0914545E-1,-5.2734155E-2,3.042943E-3,8.152062E-3,8.031815E-1,4.5321053E-3,8.8215965E-1,7.901259E-1,6.9363005E-3,1.3451716E-2,-5.8105137E-2,3.1804383E-1,-1.378181E-1,1.6874853E-1,4.4528423E-3,8.782855E-2,-3.2492284E-2,1.6341612E-1,-1.0486886E-1,2.2378415E-1,-3.1269826E-2,3.0967796E-2,-2.6726717E-1,5.6351688E-2,-1.9496632E-1,-3.6544174E-2,-6.176353E-2,2.507778E-1,-1.0770984E-1,-2.3007436E-2,2.3317832E-2,1.9023837E-1,-2.218757E-3,2.9974261E-2,-2.5109646E-1,7.900634E-2,2.1034855E-2,-7.286627E-2,7.0312366E-2,-1.3712524E-1,1.4744367E-2,4.284794E-1,-2.4393044E-1,-3.117296E-2,3.105109E-1,-2.1673204E-2],"split_indices":[5,4,4,2,4,4,1,1,5,0,3,5,0,1,0,5,0,1,1,4,0,0,1,1,1,1,1,0,3,3,3,0,0,0,1,0,0,0,0,0,0,1,0,1,0,0,4,1,4,2,1,0,0,3,1,5,2,5,5,4,0,0,0,0,0,0,0,0,0,0,0,0,0,0,0,0,0,0,0,0,0,0,0,0,0,0,0,0,0,0,0,0,0,0,0,0,0],"split_type":[0,0,0,0,0,0,0,0,0,0,0,0,0,0,0,0,0,0,0,0,0,0,0,0,0,0,0,0,0,0,0,0,0,0,0,0,0,0,0,0,0,0,0,0,0,0,0,0,0,0,0,0,0,0,0,0,0,0,0,0,0,0,0,0,0,0,0,0,0,0,0,0,0,0,0,0,0,0,0,0,0,0,0,0,0,0,0,0,0,0,0,0,0,0,0,0,0],"sum_hessian":[1.7225684E4,4.133364E2,1.6812348E4,1.4182162E1,3.9915424E2,6.6783734E2,1.614451E4,3.7422862E0,1.0439877E1,9.181361E0,3.8997287E2,5.33273E2,1.3456433E2,1.6018665E4,1.2584558E2,2.3247912E0,1.417495E0,8.064004E0,2.3758726E0,3.205114E0,5.976248E0,1.1786971E1,3.781859E2,3.7210977E2,1.6116324E2,1.2944864E2,5.115697E0,1.5858449E4,1.6021547E2,1.0276564E2,2.3079939E1,1.1612141E0,1.1635771E0,1.8612918E0,6.202712E0,1.1849538E0,1.1909187E0,2.0778222E0,1.1272918E0,4.577487E0,1.3987607E0,8.351742E0,3.435229E0,2.5986545E2,1.18320465E2,7.467095E1,2.9743884E2,1.2979637E2,3.1366869E1,8.842092E0,1.2060654E2,4.0637956E0,1.0519013E0,3.972852E2,1.5461164E4,1.2623419E1,1.4759206E2,9.525685E1,7.5087924E0,1.7374487E1,5.705452E0,2.349675E0,3.853037E0,3.864998E0,4.486744E0,1.7373991E2,8.6125534E1,1.15500496E2,2.8199673E0,6.872322E1,5.94773E0,1.947474E2,1.0269143E2,1.5393788E0,1.2825699E2,5.9819E0,2.5384968E1,2.810661E0,6.0314302E0,5.359082E1,6.701572E1,3.8442004E2,1.2865116E1,1.5184766E4,2.7639807E2,9.115726E0,3.507693E0,7.360492E1,7.398713E1,8.819741E1,7.0594425E0,2.5840137E0,4.924779E0,6.9897203E0,1.0384767E1,2.148541E0,3.556911E0],"tree_param":{"num_deleted":"0","num_feature":"6","num_nodes":"97","size_leaf_vector":"1"}},{"base_weights":[-2.4087324E-3,-5.6017894E-2,-4.0660411E-4,-1.1761036E-1,7.2686404E-2,-9.937676E-4,3.2631093E-1,-6.665832E-2,-3.703573E-1,1.0104845E-1,-4.570316E-1,-5.500752E-4,-4.0184075E-1,-2.5648457E-1,4.3926233E-1,1.1653888E-1,-1.12063736E-1,6.6598225E-1,-4.6922922E-1,-1.6469537E-1,1.6703115E-1,-7.598877E-1,2.6005265E-1,-8.960292E-4,6.5244704E-1,2.7451068E-1,-6.5374386E-1,2.950101E-1,1.1376578E0,1.1268605E-3,1.0008063E0,7.826701E-2,-1.6609378E-1,7.10788E-2,1.1654725E0,-8.490301E-1,-3.2694396E-1,2.9762825E-1,-2.4882704E-1,3.8610607E-1,7.717466E-2,-9.121109E-1,-4.0634535E-2,2.8141233E-1,-2.1495421E-1,-2.8313277E-4,-4.0100047E-1,2.7635887E-1,1.0588019E0,-1.7046216E-1,2.1471982E-1,-3.1783906E-1,-3.5631832E-1,5.006829E-1,-7.9899096E-1,5.1122797E-1,-5.6788605E-3,1.6110358E-1,-2.112105E-2,3.334073E-2,5.0294566E-1,-7.532154E-2,2.1227233E-1,-1.7097639E-1,-3.154604E-2,-2.2903144E-1,2.9955915E-1,5.596142E-1,-4.631202E-2,-2.9027173E-1,-1.0558888E-1,1.21214494E-1,-1.1112774E-1,-9.676611E-2,3.203331E-1,2.3240422E-1,5.701997E-2,-1.7845656E-1,3.1786907E-2,-3.0745262E-1,-9.010092E-2,-3.4282194E-4,7.17885E-2,8.929929E-2,-2.0050989E-1,1.8321879E-1,-1.19292736E-1,5.36518E-1,4.5938548E-2,9.2083044E-2,-1.4516452E-1,8.898765E-2,-2.3540972E-1,7.182083E-2,3.4667337E-1,-7.2039194E-2,-2.7725744E-1],"categories":[],"categories_nodes":[],"categories_segments":[],"categories_sizes":[],"default_left":[0,0,0,0,0,0,0,0,0,0,0,0,0,0,0,0,0,0,0,0,0,0,0,0,0,0,0,0,0,0,0,0,0,0,0,0,0,0,0,0,0,0,0,0,0,0,0,0,0,0,0,0,0,0,0,0,0,0,0,0,0,0,0,0,0,0,0,0,0,0,0,0,0,0,0,0,0,0,0,0,0,0,0,0,0,0,0,0,0,0,0,0,0,0,0,0,0],"id":11,"left_children":[1,3,5,7,9,11,13,15,17,19,21,23,25,-1,27,29,31,33,35,37,39,41,43,45,47,49,51,53,55,57,59,61,63,65,67,69,71,-1,73,75,77,79,-1,-1,-1,81,83,85,87,89,-1,-1,91,93,95,-1,-1,-1,-1,-1,-1,-1,-1,-1,-1,-1,-1,-1,-1,-1,-1,-1,-1,-1,-1,-1,-1,-1,-1,-1,-1,-1,-1,-1,-1,-1,-1,-1,-1,-1,-1,-1,-1,-1,-1,-1,-1],"loss_changes":[1.8472185E0,4.920309E0,3.1832514E0,5.376899E0,3.0684385E0,2.945572E0,4.3473086E0,2.9268444E0,7.500538E0,3.3899083E0,2.4571562E0,3.7383919E0,3.2993402E0,0E0,2.4681563E0,7.149455E0,2.905018E0,1.8555207E0,3.2149172E0,4.007965E0,3.0039706E0,5.9600544E-1,3.2109084E0,4.0553823E0,1.0465355E0,1.2359153E0,1.2682376E0,5.893846E0,2.924121E0,2.4518826E0,4.675584E0,1.3205951E1,5.3385215E0,3.8908682E0,3.5036216E0,6.603842E-1,1.6957202E0,0E0,3.9189851E0,3.2483764E0,2.2010605E0,9.991741E-2,0E0,0E0,0E0,3.4011602E0,4.9238744E0,1.5734072E0,2.2758088E0,6.920408E-1,0E0,0E0,2.855337E0,3.345283E0,7.538104E-2,0E0,0E0,0E0,0E0,0E0,0E0,0E0,0E0,0E0,0E0,0E0,0E0,0E0,0E0,0E0,0E0,0E0,0E0,0E0,0E0,0E0,0E0,0E0,0E0,0E0,0E0,0E0,0E0,0E0,0E0,0E0,0E0,0E0,0E0,0E0,0E0,0E0,0E0,0E0,0E0,0E0,0E0],"parents":[2147483647,0,0,1,1,2,2,3,3,4,4,5,5,6,6,7,7,8,8,9,9,10,10,11,11,12,12,14,14,15,15,16,16,17,17,18,18,19,19,20,20,21,21,22,22,23,23,24,24,25,25,26,26,27,27,28,28,29,29,30,30,31,31,32,32,33,33,34,34,35,35,36,36,38,38,39,39,40,40,41,41,45,45,46,46,47,47,48,48,49,49,52,52,53,53,54,54],"right_children":[2,4,6,8,10,12,14,16,18,20,22,24,26,-1,28,30,32,34,36,38,40,42,44,46,48,50,52,54,56,58,60,62,64,66,68,70,72,-1,74,76,78,80,-1,-1,-1,82,84,86,88,90,-1,-1,92,94,96,-1,-1,-1,-1,-1,-1,-1,-1,-1,-1,-1,-1,-1,-1,-1,-1,-1,-1,-1,-1,-1,-1,-1,-1,-1,-1,-1,-1,-1,-1,-1,-1,-1,-1,-1,-1,-1,-1,-1,-1,-1,-1],"split_conditions":[1.2110136E-5,7.8846854E-1,3.8973007E-1,1.0257421E-5,8.132981E-1,6.8138856E-1,1.889669E-1,7.7255213E-1,8.76269E-3,9.996111E-2,8.256338E-1,5.482923E-1,7.7639925E-1,-2.5648457E-1,8.0983484E-1,7.718543E-1,9.996111E-2,7.807482E-1,7.1815915E-2,7.8881E-1,6.510118E-2,1.0257421E-5,2.3687637E-1,4.0459293E-1,7.982659E-1,7.844171E-1,1.8116825E-5,8.009854E-1,5.7455054E-5,2.0241296E-6,5.372992E-6,7.700284E-2,3.8466346E-2,6.4021195E-3,7.8518146E-1,2.6646562E-2,2.5072774E-2,2.9762825E-1,8.069106E-1,7.91828E-1,6.914482E-2,7.6284343E-1,-4.0634535E-2,2.8141233E-1,-2.1495421E-1,2.475281E-1,1.2832914E-1,7.858707E-1,8.031815E-1,2.810528E-1,2.1471982E-1,-3.1783906E-1,2.810528E-1,7.9220754E-1,8.02787E-1,5.1122797E-1,-5.6788605E-3,1.6110358E-1,-2.112105E-2,3.334073E-2,5.0294566E-1,-7.532154E-2,2.1227233E-1,-1.7097639E-1,-3.154604E-2,-2.2903144E-1,2.9955915E-1,5.596142E-1,-4.631202E-2,-2.9027173E-1,-1.0558888E-1,1.21214494E-1,-1.1112774E-1,-9.676611E-2,3.203331E-1,2.3240422E-1,5.701997E-2,-1.7845656E-1,3.1786907E-2,-3.0745262E-1,-9.010092E-2,-3.4282194E-4,7.17885E-2,8.929929E-2,-2.0050989E-1,1.8321879E-1,-1.19292736E-1,5.36518E-1,4.5938548E-2,9.2083044E-2,-1.4516452E-1,8.898765E-2,-2.3540972E-1,7.182083E-2,3.4667337E-1,-7.2039194E-2,-2.7725744E-1],"split_indices":[1,5,4,1,5,2,3,5,4,3,5,2,5,0,5,5,3,5,2,5,4,1,4,0,5,3,1,5,1,1,1,0,4,4,5,4,4,0,5,5,4,0,0,0,0,0,4,5,5,4,0,0,4,5,5,0,0,0,0,0,0,0,0,0,0,0,0,0,0,0,0,0,0,0,0,0,0,0,0,0,0,0,0,0,0,0,0,0,0,0,0,0,0,0,0,0,0],"split_type":[0,0,0,0,0,0,0,0,0,0,0,0,0,0,0,0,0,0,0,0,0,0,0,0,0,0,0,0,0,0,0,0,0,0,0,0,0,0,0,0,0,0,0,0,0,0,0,0,0,0,0,0,0,0,0,0,0,0,0,0,0,0,0,0,0,0,0,0,0,0,0,0,0,0,0,0,0,0,0,0,0,0,0,0,0,0,0,0,0,0,0,0,0,0,0,0,0],"sum_hessian":[1.720947E4,6.1860736E2,1.6590863E4,4.1844388E2,2.0016345E2,1.6562096E4,2.876777E1,3.4929263E2,6.915125E1,1.9075911E2,9.404339E0,1.6544783E4,1.731184E1,1.9373683E0,2.6830402E1,6.9065895E1,2.8022675E2,5.523205E0,6.3628044E1,3.764574E1,1.5311337E2,6.569894E0,2.834445E0,1.6537021E4,7.7625875E0,4.6736093E0,1.263823E1,2.3416235E1,3.414168E0,6.1977985E1,7.087912E0,6.1861103E1,2.1836563E2,3.0421922E0,2.4810123E0,1.5986993E1,4.7641052E1,1.8206124E0,3.5825127E1,4.3575954E1,1.0953742E2,4.9118223E0,1.6580719E0,1.6962565E0,1.1381884E0,1.6512727E4,2.4294167E1,4.9039726E0,2.858615E0,2.6324449E0,2.0411644E0,4.2621284E0,8.376102E0,2.016714E1,3.2490952E0,1.9740176E0,1.4401501E0,6.53231E0,5.5445675E1,3.5621235E0,3.5257883E0,4.100354E1,2.0857563E1,2.753696E1,1.9082867E2,1.6944115E0,1.3477808E0,1.3511645E0,1.129848E0,1.2144231E1,3.842762E0,2.2091818E0,4.543187E1,3.464036E1,1.1847651E0,1.3622605E1,2.9953348E1,3.6908615E0,1.0584656E2,3.5774195E0,1.3344027E0,1.6454684E4,5.804422E1,6.6924696E0,1.7601696E1,3.3405895E0,1.563383E0,1.0434103E0,1.8152047E0,1.0514786E0,1.5809664E0,3.4401472E0,4.935955E0,1.5391879E1,4.77526E0,1.1287291E0,2.120366E0],"tree_param":{"num_deleted":"0","num_feature":"6","num_nodes":"97","size_leaf_vector":"1"}},{"base_weights":[-1.7784479E-3,2.6389677E-3,-2.458756E-2,9.360701E-5,1.7144862E-1,-4.1348594E-1,-2.0375544E-2,1.7031167E-1,-7.5830356E-4,5.8172643E-1,1.0163291E-1,2.5335282E-1,-5.5260515E-1,-1.8839101E-1,-1.2254847E-2,2.2554876E-1,-3.9512196E-1,-7.577592E-5,-2.197877E-1,7.039524E-1,-2.019001E-1,-5.499974E-1,1.5614383E-1,-3.0987886E-1,7.0734525E-1,-7.754807E-1,-2.7845773E-1,4.153649E-1,-2.4358273E-1,3.023602E-1,-1.3295499E-2,1.5638237E-1,3.7632474E-1,-8.6075336E-1,1.7975026E-1,-4.399992E-3,3.607404E-2,-3.2900888E-1,9.303879E-1,3.2558877E-2,8.295695E-1,3.7610492E-1,-7.7914083E-1,1.2610956E-1,1.3144506E0,-2.045379E-1,5.206581E-2,3.257415E-1,1.7275356E-2,-4.602788E-1,-3.3132568E-1,4.880161E-1,-5.5178875E-1,-2.0014396E-2,3.9956647E-1,8.442978E-1,-2.7299014E-1,-2.8544605E-2,4.3177027E-2,1.5219207E-1,2.0069392E-2,-3.499367E-1,-1.0005873E-1,4.773114E-4,-1.3314809E-2,6.553647E-2,5.2346624E-3,-1.3982859E-1,1.0224154E-1,1.07507735E-1,3.5609326E-1,1.949327E-1,-1.9921218E-1,-8.326917E-2,2.8156713E-1,2.3890583E-1,-3.1698655E-2,-2.128644E-2,-2.6422572E-1,-2.0033681E-1,4.923426E-2,5.744596E-1,1.27306E-1,-1.9958924E-1,6.0464013E-2,3.138484E-1,-4.651415E-2,-2.1924807E-1,7.358575E-2,-2.3992424E-1,9.391732E-2,5.7090476E-2,3.3272684E-1,-6.230155E-2,-2.6596025E-1,4.093726E-2,-1.1277106E-2,1.4498788E-1,4.8761982E-3],"categories":[],"categories_nodes":[],"categories_segments":[],"categories_sizes":[],"default_left":[0,0,0,0,0,0,0,0,0,0,0,0,0,0,0,0,0,0,0,0,0,0,0,0,0,0,0,0,0,0,0,0,0,0,0,0,0,0,0,0,0,0,0,0,0,0,0,0,0,0,0,0,0,0,0,0,0,0,0,0,0,0,0,0,0,0,0,0,0,0,0,0,0,0,0,0,0,0,0,0,0,0,0,0,0,0,0,0,0,0,0,0,0,0,0,0,0,0,0],"id":12,"left_children":[1,3,5,7,9,11,13,15,17,19,21,23,25,27,29,31,33,35,37,39,-1,41,43,45,47,49,51,53,55,-1,57,59,-1,61,-1,63,65,67,69,71,73,75,77,79,81,-1,-1,-1,-1,83,-1,85,87,89,-1,91,93,95,97,-1,-1,-1,-1,-1,-1,-1,-1,-1,-1,-1,-1,-1,-1,-1,-1,-1,-1,-1,-1,-1,-1,-1,-1,-1,-1,-1,-1,-1,-1,-1,-1,-1,-1,-1,-1,-1,-1,-1,-1],"loss_changes":[1.7332166E0,6.1922545E0,4.56327E0,2.0590234E0,6.0726466E0,2.9093752E0,3.7662964E0,2.2976027E0,2.1121075E0,5.2154274E0,6.6270986E0,1.7121143E0,1.3124046E0,4.342298E0,2.8115602E0,4.4332604E0,3.59742E0,2.2020197E0,5.819651E0,2.3903666E0,0E0,3.3566642E0,5.7731967E0,7.118527E-1,8.073456E-1,8.640609E-1,2.9460392E0,4.427988E0,3.9813795E0,0E0,2.2696164E0,1.9160944E0,0E0,4.0775228E-1,0E0,3.013843E0,5.108509E0,3.9072123E0,1.716578E-1,2.8213286E0,3.169033E0,8.004475E-1,7.937412E-1,5.1635485E0,1.4365735E0,0E0,0E0,0E0,0E0,1.2839003E0,0E0,1.5581541E0,1.59028E0,2.448256E0,0E0,3.6565232E-1,4.4212046E0,3.1017075E0,6.6330733E0,0E0,0E0,0E0,0E0,0E0,0E0,0E0,0E0,0E0,0E0,0E0,0E0,0E0,0E0,0E0,0E0,0E0,0E0,0E0,0E0,0E0,0E0,0E0,0E0,0E0,0E0,0E0,0E0,0E0,0E0,0E0,0E0,0E0,0E0,0E0,0E0,0E0,0E0,0E0,0E0],"parents":[2147483647,0,0,1,1,2,2,3,3,4,4,5,5,6,6,7,7,8,8,9,9,10,10,11,11,12,12,13,13,14,14,15,15,16,16,17,17,18,18,19,19,21,21,22,22,23,23,24,24,25,25,26,26,27,27,28,28,30,30,31,31,33,33,35,35,36,36,37,37,38,38,39,39,40,40,41,41,42,42,43,43,44,44,49,49,51,51,52,52,53,53,55,55,56,56,57,57,58,58],"right_children":[2,4,6,8,10,12,14,16,18,20,22,24,26,28,30,32,34,36,38,40,-1,42,44,46,48,50,52,54,56,-1,58,60,-1,62,-1,64,66,68,70,72,74,76,78,80,82,-1,-1,-1,-1,84,-1,86,88,90,-1,92,94,96,98,-1,-1,-1,-1,-1,-1,-1,-1,-1,-1,-1,-1,-1,-1,-1,-1,-1,-1,-1,-1,-1,-1,-1,-1,-1,-1,-1,-1,-1,-1,-1,-1,-1,-1,-1,-1,-1,-1,-1,-1],"split_conditions":[7.068901E-2,6.8402156E-2,7.1815915E-2,7.1464455E-1,7.578235E-1,2.5072774E-2,2.1849003E-2,4.4490125E-2,1.02441706E-1,1.3792971E-1,7.641649E-1,2.2212917E-2,8.035795E-1,1.2125491E-2,6.649329E-2,3.7282158E-2,5.817868E-2,2.8431993E-2,8.4961176E-1,6.051723E-5,-2.019001E-1,6.491752E-2,7.326305E-2,1.20330886E-4,1.20330886E-4,7.27404E-2,8.111741E-1,7.911365E-1,7.6170176E-1,3.023602E-1,1.2832914E-1,6.9811504E-4,3.7632474E-1,7.4300007E-4,1.7975026E-1,3.446219E-2,2.6039116E-2,6.608716E-2,1.2054013E-1,6.6570856E-2,2.5072774E-2,4.9434837E-2,3.374186E-5,1.40392995E-5,6.927342E-2,-2.045379E-1,5.206581E-2,3.257415E-1,1.7275356E-2,5.937903E-2,-3.3132568E-1,4.9434837E-2,7.414518E-2,9.513106E-3,3.9956647E-1,1.6271038E-4,2.120104E-2,7.5591005E-2,1.09090135E-1,1.5219207E-1,2.0069392E-2,-3.499367E-1,-1.0005873E-1,4.773114E-4,-1.3314809E-2,6.553647E-2,5.2346624E-3,-1.3982859E-1,1.0224154E-1,1.07507735E-1,3.5609326E-1,1.949327E-1,-1.9921218E-1,-8.326917E-2,2.8156713E-1,2.3890583E-1,-3.1698655E-2,-2.128644E-2,-2.6422572E-1,-2.0033681E-1,4.923426E-2,5.744596E-1,1.27306E-1,-1.9958924E-1,6.0464013E-2,3.138484E-1,-4.651415E-2,-2.1924807E-1,7.358575E-2,-2.3992424E-1,9.391732E-2,5.7090476E-2,3.3272684E-1,-6.230155E-2,-2.6596025E-1,4.093726E-2,-1.1277106E-2,1.4498788E-1,4.8761982E-3],"split_indices":[0,3,2,5,5,4,4,0,4,4,5,4,5,4,3,0,2,4,5,1,0,0,2,1,1,3,5,5,5,0,4,1,0,1,0,0,3,2,4,0,4,4,1,1,0,0,0,0,0,4,0,4,3,4,0,1,4,3,0,0,0,0,0,0,0,0,0,0,0,0,0,0,0,0,0,0,0,0,0,0,0,0,0,0,0,0,0,0,0,0,0,0,0,0,0,0,0,0,0],"split_type":[0,0,0,0,0,0,0,0,0,0,0,0,0,0,0,0,0,0,0,0,0,0,0,0,0,0,0,0,0,0,0,0,0,0,0,0,0,0,0,0,0,0,0,0,0,0,0,0,0,0,0,0,0,0,0,0,0,0,0,0,0,0,0,0,0,0,0,0,0,0,0,0,0,0,0,0,0,0,0,0,0,0,0,0,0,0,0,0,0,0,0,0,0,0,0,0,0,0,0],"sum_hessian":[1.7200248E4,1.4410305E4,2.7899434E3,1.4197234E4,2.1306946E2,2.8851984E1,2.7610913E3,6.971016E1,1.4127524E4,2.9918512E1,1.8315096E2,4.8385057E0,2.4013477E1,1.2627569E2,2.6348157E3,6.4053856E1,5.6563025E0,1.4084635E4,4.288944E1,2.7662775E1,2.2557375E0,1.3436746E1,1.697142E2,2.3011239E0,2.537382E0,1.2236658E1,1.1776819E1,1.0029931E1,1.1624576E2,1.6991394E0,2.6331165E3,6.1098457E1,2.9553976E0,3.943733E0,1.7125694E0,1.2580628E4,1.5040077E3,3.9821884E1,3.067554E0,4.5584025E0,2.3104372E1,2.5379715E0,1.0898774E1,1.6650568E2,3.2085292E0,1.0686609E0,1.232463E0,1.1793648E0,1.358017E0,7.4740286E0,4.76263E0,2.8892777E0,8.887542E0,7.462945E0,2.5669863E0,2.3302808E0,1.13915474E2,2.0736655E3,5.594511E2,1.1465562E1,4.9632896E1,1.7288446E0,2.2148883E0,1.0942028E4,1.6385992E3,1.383668E2,1.3656409E3,3.330891E1,6.5129733E0,1.6920347E0,1.3755194E0,2.4525535E0,2.1058493E0,1.931972E0,2.11724E1,1.0067744E0,1.5311971E0,1.5806518E0,9.318123E0,6.849597E0,1.5965608E2,1.2285279E0,1.9800012E0,5.702329E0,1.7716992E0,1.2111888E0,1.6780889E0,7.325262E0,1.5622797E0,1.8143551E0,5.6485896E0,1.1668981E0,1.1633825E0,1.0416453E2,9.750947E0,1.0704204E2,1.9666234E3,3.1273096E1,5.2817804E2],"tree_param":{"num_deleted":"0","num_feature":"6","num_nodes":"99","size_leaf_vector":"1"}},{"base_weights":[-1.2591552E-3,-3.2346427E-2,1.7047899E-3,-2.4152571E-2,-5.2459496E-1,2.3852305E-1,6.7270896E-4,-1.2305818E-2,-2.6966244E-1,2.785595E-1,-6.588833E-1,5.487736E-1,-8.422858E-2,-2.1285942E-1,1.6476036E-3,-2.5887765E-2,1.9572812E-1,4.129296E-3,-5.3188497E-1,-1.1826319E-1,2.702082E-1,-8.149267E-1,1.4463028E-1,-6.557701E-1,6.775823E-1,-1.9305794E-1,3.5395312E-1,-8.453922E-1,-1.832192E-2,7.499125E-2,-1.0538523E-3,-1.535944E-2,-3.67922E-1,3.4426227E-2,1.2379265E0,-1.8751213E-1,1.0063342E0,-3.7381506E-1,-9.7744703E-1,-3.1567797E-1,-1.0277662E0,-2.3206906E-1,2.4573535E-1,-7.475993E-2,-2.4824373E-1,-1.746695E-1,7.9634565E-1,-4.8753768E-1,1.0025948E-1,2.1300842E-1,-1.0291277E0,-4.05745E-1,2.3008993E-1,3.145473E-2,3.0243036E-1,-2.0855838E-1,2.81659E-4,-1.008499E-2,3.601279E-2,3.4878377E-3,-1.7684077E-1,2.2467574E-1,-3.525255E-2,4.5831537E-1,-1.0615931E-2,4.7067635E-2,-1.4148709E-1,7.993032E-2,3.3763033E-1,-2.075139E-1,-4.7115956E-2,-3.5357654E-1,6.330361E-2,-1.8761888E-1,1.3537487E-1,-3.29661E-1,-6.98248E-2,-1.8615675E-1,1.0551555E-1,4.4638333E-1,1.6654381E-1,-1.9138463E-1,1.15716904E-1,-2.8242556E-2,4.0923032E-1,-1.0454627E-1,2.1769573E-1,-1.2259972E-2,-3.5895026E-1,2.2123873E-1,-1.761678E-1,1.2262423E-1,-1.5703163E-1,6.466514E-2,-1.0777235E-2,2.1000345E-1,2.444511E-2,1.5408438E-1,-9.006393E-2,9.031919E-3,-1.377944E-3],"categories":[],"categories_nodes":[],"categories_segments":[],"categories_sizes":[],"default_left":[0,0,0,0,0,0,0,0,0,0,0,0,0,0,0,0,0,0,0,0,0,0,0,0,0,0,0,0,0,0,0,0,0,0,0,0,0,0,0,0,0,0,0,0,0,0,0,0,0,0,0,0,0,0,0,0,0,0,0,0,0,0,0,0,0,0,0,0,0,0,0,0,0,0,0,0,0,0,0,0,0,0,0,0,0,0,0,0,0,0,0,0,0,0,0,0,0,0,0,0,0],"id":13,"left_children":[1,3,5,7,9,11,13,15,17,19,21,23,25,27,29,31,33,35,37,-1,-1,39,41,43,45,47,-1,49,51,53,55,57,59,61,63,65,67,69,71,73,75,-1,-1,-1,-1,77,79,81,83,85,87,89,91,93,95,97,99,-1,-1,-1,-1,-1,-1,-1,-1,-1,-1,-1,-1,-1,-1,-1,-1,-1,-1,-1,-1,-1,-1,-1,-1,-1,-1,-1,-1,-1,-1,-1,-1,-1,-1,-1,-1,-1,-1,-1,-1,-1,-1,-1,-1],"loss_changes":[1.5837069E0,6.0216975E0,3.8352525E0,4.279867E0,2.8203192E0,6.864208E0,3.2530463E0,3.9774604E0,4.8656683E0,2.1150656E0,2.781331E0,5.8514776E0,4.937969E0,8.723718E0,3.082076E0,4.749986E0,1.4461637E1,6.7442446E0,2.0721693E0,0E0,0E0,1.5817423E0,3.2990034E0,6.4302206E-2,3.3754807E0,2.8461018E0,0E0,3.4634542E0,5.4191103E0,5.462262E0,4.1578894E0,3.1737933E0,3.3193536E0,8.310483E0,4.3104744E0,2.9601529E0,1.9681072E-1,1.7633135E0,2.2671623E0,1.8986491E0,4.3014336E-1,0E0,0E0,0E0,0E0,1.3285565E0,3.8854485E0,2.3910732E0,4.3183513E0,1.2016908E0,2.3307724E0,4.9935966E0,4.8391237E0,5.774816E0,7.7318926E0,6.5049825E0,2.167685E0,0E0,0E0,0E0,0E0,0E0,0E0,0E0,0E0,0E0,0E0,0E0,0E0,0E0,0E0,0E0,0E0,0E0,0E0,0E0,0E0,0E0,0E0,0E0,0E0,0E0,0E0,0E0,0E0,0E0,0E0,0E0,0E0,0E0,0E0,0E0,0E0,0E0,0E0,0E0,0E0,0E0,0E0,0E0,0E0],"parents":[2147483647,0,0,1,1,2,2,3,3,4,4,5,5,6,6,7,7,8,8,9,9,10,10,11,11,12,12,13,13,14,14,15,15,16,16,17,17,18,18,21,21,22,22,23,23,24,24,25,25,27,27,28,28,29,29,30,30,31,31,32,32,33,33,34,34,35,35,36,36,37,37,38,38,39,39,40,40,45,45,46,46,47,47,48,48,49,49,50,50,51,51,52,52,53,53,54,54,55,55,56,56],"right_children":[2,4,6,8,10,12,14,16,18,20,22,24,26,28,30,32,34,36,38,-1,-1,40,42,44,46,48,-1,50,52,54,56,58,60,62,64,66,68,70,72,74,76,-1,-1,-1,-1,78,80,82,84,86,88,90,92,94,96,98,100,-1,-1,-1,-1,-1,-1,-1,-1,-1,-1,-1,-1,-1,-1,-1,-1,-1,-1,-1,-1,-1,-1,-1,-1,-1,-1,-1,-1,-1,-1,-1,-1,-1,-1,-1,-1,-1,-1,-1,-1,-1,-1,-1,-1],"split_conditions":[1.7635392E-3,8.860505E-3,1.8227737E-3,1.6963489E-3,1.1636991E-3,3.8913107E-3,1.8903485E-3,4.998377E-3,3.8913107E-3,1.0299489E-3,7.732724E-4,1.531978E-3,1.02690235E-2,3.042943E-3,4.0014847E-3,4.6147797E-3,3.8163704E-3,3.6346538E-3,7.950917E-1,-1.1826319E-1,2.702082E-1,7.81803E-1,7.756534E-1,1.3005029E-3,7.672909E-1,5.338952E-3,3.5395312E-1,3.0694678E-4,6.2355195E-4,3.8632099E-3,4.1613886E-3,1.5068775E-3,7.796383E-1,7.7326846E-1,1.1129414E-2,7.827249E-1,7.732724E-4,7.7326846E-1,1.1129414E-2,7.801182E-1,7.962199E-1,-2.3206906E-1,2.4573535E-1,-7.475993E-2,-2.4824373E-1,1.9671235E-3,7.7751625E-1,6.3303844E-3,8.013131E-1,2.4160426E-4,1.7441584E-3,7.6506746E-1,8.02787E-1,1.0435024E-3,3.992536E-3,7.5526494E-1,8.71623E-3,-1.008499E-2,3.601279E-2,3.4878377E-3,-1.7684077E-1,2.2467574E-1,-3.525255E-2,4.5831537E-1,-1.0615931E-2,4.7067635E-2,-1.4148709E-1,7.993032E-2,3.3763033E-1,-2.075139E-1,-4.7115956E-2,-3.5357654E-1,6.330361E-2,-1.8761888E-1,1.3537487E-1,-3.29661E-1,-6.98248E-2,-1.8615675E-1,1.0551555E-1,4.4638333E-1,1.6654381E-1,-1.9138463E-1,1.15716904E-1,-2.8242556E-2,4.0923032E-1,-1.0454627E-1,2.1769573E-1,-1.2259972E-2,-3.5895026E-1,2.2123873E-1,-1.761678E-1,1.2262423E-1,-1.5703163E-1,6.466514E-2,-1.0777235E-2,2.1000345E-1,2.444511E-2,1.5408438E-1,-9.006393E-2,9.031919E-3,-1.377944E-3],"split_indices":[4,2,4,4,4,3,4,0,3,4,1,3,1,3,0,2,1,3,5,0,0,5,5,0,5,0,0,1,1,2,0,4,5,5,1,5,1,5,1,5,5,0,0,0,0,1,5,1,5,1,2,5,5,1,3,5,2,0,0,0,0,0,0,0,0,0,0,0,0,0,0,0,0,0,0,0,0,0,0,0,0,0,0,0,0,0,0,0,0,0,0,0,0,0,0,0,0,0,0,0,0],"split_type":[0,0,0,0,0,0,0,0,0,0,0,0,0,0,0,0,0,0,0,0,0,0,0,0,0,0,0,0,0,0,0,0,0,0,0,0,0,0,0,0,0,0,0,0,0,0,0,0,0,0,0,0,0,0,0,0,0,0,0,0,0,0,0,0,0,0,0,0,0,0,0,0,0,0,0,0,0,0,0,0,0,0,0,0,0,0,0,0,0,0,0,0,0,0,0,0,0,0,0,0,0],"sum_hessian":[1.7186271E4,1.4950944E3,1.5691177E4,1.4716467E3,2.3447628E1,6.7088715E1,1.5624088E4,1.404905E3,6.674171E1,3.204964E0,2.0242662E1,3.384976E1,3.3238956E1,7.0020805E1,1.5554067E4,1.3196259E3,8.527908E1,3.313209E1,3.360962E1,1.7158349E0,1.489129E0,1.6938902E1,3.303762E0,2.8748455E0,3.0974913E1,3.1384228E1,1.8547286E0,1.5682849E1,5.433796E1,5.5159814E2,1.5002469E4,1.2812325E3,3.839335E1,7.4743935E1,1.0535149E1,2.8495993E1,4.636098E0,2.6165857E1,7.4437613E0,5.805158E0,1.1133743E1,1.3369092E0,1.9668529E0,1.581494E0,1.2933515E0,3.730919E0,2.7243994E1,1.5330664E1,1.6053564E1,2.2962239E0,1.3386625E1,2.098164E1,3.335632E1,4.639306E2,8.766755E1,9.4947044E1,1.4907522E4,1.129664E3,1.5156862E2,1.4499961E1,2.3893387E1,1.2417904E1,6.232603E1,8.41923E0,2.1159182E0,1.3083614E1,1.5412377E1,1.0916121E0,3.5444858E0,9.719843E0,1.6446014E1,6.373398E0,1.0703636E0,4.2666464E0,1.5385119E0,9.868903E0,1.2648402E0,1.9231613E0,1.8077575E0,5.7080894E0,2.1535904E1,1.3307955E1,2.022709E0,1.471556E1,1.3380039E0,1.2487216E0,1.0475023E0,2.1190095E0,1.1267615E1,2.4547563E0,1.8526884E1,2.73333E1,6.0230184E0,1.2371405E2,3.4021655E2,3.0541533E1,5.7126015E1,1.0174616E1,8.477242E1,2.0935735E3,1.2813948E4],"tree_param":{"num_deleted":"0","num_feature":"6","num_nodes":"101","size_leaf_vector":"1"}},{"base_weights":[-1.0308118E-3,-2.7645975E-3,5.1715527E-2,-8.737903E-4,-4.377534E-2,-1.4953862E-1,1.0173026E-1,-1.4830248E-3,5.7056415E-1,-3.498581E-2,-6.070525E-1,-3.1397156E-2,-5.584991E-1,3.4112254E-1,5.8636118E-2,-4.0054685E-3,2.8437462E-2,1.9832687E-1,1.1963837E0,-4.8597448E-2,9.009336E-1,-2.1586591E-1,-2.866028E-1,-7.7312976E-2,9.3539035E-1,-1.13491744E-1,-6.73132E-1,6.336559E-1,-1.2268276E-1,3.9377984E-2,6.8470126E-1,-2.2126278E-3,-1.470198E-1,-2.0482345E-1,5.142579E-2,-4.7497946E-1,5.938747E-1,4.3527487E-1,3.943301E-2,-2.5630675E-2,-3.3221385E-1,1.09233E0,2.4921149E-2,-4.768419E-1,1.2007416E-1,1.977917E-2,-7.061234E-1,3.383393E-1,6.42641E-2,-1.981052E-1,2.9677287E-1,-1.4442119E-1,-7.871635E-1,3.0411145E-1,1.0714853E0,-7.7467585E-1,9.64849E-2,7.328987E-2,-4.3097872E-1,8.3660173E-1,-1.0843515E-1,-5.686821E-4,-1.3703105E-1,-4.849646E-2,3.356201E-1,-3.899243E-2,-2.6475295E-1,1.15648754E-1,1.0382104E-2,1.4833649E-1,-2.8031898E-1,2.7014542E-1,-1.3586411E-1,-1.4884983E-2,9.692734E-2,-1.514965E-2,-1.3520809E-1,7.7070054E-3,3.9469022E-1,-2.1614487E-1,5.3117286E-2,-1.1516094E-2,2.4136543E-1,-3.499019E-1,-8.306164E-2,2.1018957E-1,-5.5720728E-2,-3.2286367E-1,3.0866554E-1,-1.7791536E-1,-3.4159306E-1,1.2618369E-1,-2.8566122E-1,1.8894026E-2,3.6343235E-1,1.8721629E-3,-3.0709463E-1,3.343355E-1,-3.9909646E-2,1.4157028E-1,1.6329294E-2,-1.9797145E-1,-3.9501898E-2,3.9899975E-1,1.5470433E-1],"categories":[],"categories_nodes":[],"categories_segments":[],"categories_sizes":[],"default_left":[0,0,0,0,0,0,0,0,0,0,0,0,0,0,0,0,0,0,0,0,0,0,0,0,0,0,0,0,0,0,0,0,0,0,0,0,0,0,0,0,0,0,0,0,0,0,0,0,0,0,0,0,0,0,0,0,0,0,0,0,0,0,0,0,0,0,0,0,0,0,0,0,0,0,0,0,0,0,0,0,0,0,0,0,0,0,0,0,0,0,0,0,0,0,0,0,0,0,0,0,0,0,0,0,0],"id":14,"left_children":[1,3,5,7,9,11,13,15,17,19,21,23,25,27,29,31,33,35,37,39,41,43,-1,45,47,49,51,53,55,57,59,61,63,65,67,69,71,-1,-1,73,75,77,-1,79,-1,81,83,-1,-1,-1,85,87,89,91,93,95,97,99,101,103,-1,-1,-1,-1,-1,-1,-1,-1,-1,-1,-1,-1,-1,-1,-1,-1,-1,-1,-1,-1,-1,-1,-1,-1,-1,-1,-1,-1,-1,-1,-1,-1,-1,-1,-1,-1,-1,-1,-1,-1,-1,-1,-1,-1,-1],"loss_changes":[1.5712731E0,1.2898388E0,5.51904E0,5.5370183E0,3.608317E0,5.260564E0,4.504245E0,1.1990902E0,3.7086072E0,